=== Run information ===

Scheme:       weka.classifiers.trees.J48 -C 0.25 -M 2
Relation:     liver_cirrhosis-weka.filters.unsupervised.attribute.Discretize-B3-M-1.0-Rlast-precision6-unset-class-temporarily-weka.filters.unsupervised.instance.RemoveWithValues-S0.0-C1-Lfirst-last-M-weka.filters.unsupervised.instance.RemoveWithValues-S0.0-C10-Lfirst-last-M-weka.filters.unsupervised.attribute.Normalize-S1.0-T0.0-weka.filters.supervised.instance.ClassBalancer-num-intervals10
Instances:    25000
Attributes:   19
              N_Days
              Status
              Drug
              Age
              Sex
              Ascites
              Hepatomegaly
              Spiders
              Edema
              Bilirubin
              Cholesterol
              Albumin
              Copper
              Alk_Phos
              SGOT
              Tryglicerides
              Platelets
              Prothrombin
              Stage
Test mode:    10-fold cross-validation

=== Classifier model (full training set) ===

J48 pruned tree
------------------

Prothrombin <= 0.211111
|   SGOT <= 0.1013
|   |   Bilirubin <= 0.050542
|   |   |   Tryglicerides <= 0.180531
|   |   |   |   Albumin <= 0.787313
|   |   |   |   |   Hepatomegaly = Y
|   |   |   |   |   |   Copper <= 0.205479
|   |   |   |   |   |   |   N_Days <= 0.469289
|   |   |   |   |   |   |   |   N_Days <= 0.264199
|   |   |   |   |   |   |   |   |   Spiders = N: '(-inf-1.666667]' (24.17/1.99)
|   |   |   |   |   |   |   |   |   Spiders = Y
|   |   |   |   |   |   |   |   |   |   Platelets <= 0.264036: '(1.666667-2.333333]' (4.94)
|   |   |   |   |   |   |   |   |   |   Platelets > 0.264036: '(-inf-1.666667]' (3.02)
|   |   |   |   |   |   |   |   N_Days > 0.264199
|   |   |   |   |   |   |   |   |   Albumin <= 0.712687
|   |   |   |   |   |   |   |   |   |   Prothrombin <= 0.055556: '(-inf-1.666667]' (3.02/1.0)
|   |   |   |   |   |   |   |   |   |   Prothrombin > 0.055556: '(1.666667-2.333333]' (45.47/3.02)
|   |   |   |   |   |   |   |   |   Albumin > 0.712687: '(-inf-1.666667]' (4.03)
|   |   |   |   |   |   |   N_Days > 0.469289
|   |   |   |   |   |   |   |   Tryglicerides <= 0.141593
|   |   |   |   |   |   |   |   |   Copper <= 0.107877
|   |   |   |   |   |   |   |   |   |   Prothrombin <= 0.022222: '(-inf-1.666667]' (4.03/1.0)
|   |   |   |   |   |   |   |   |   |   Prothrombin > 0.022222: '(2.333333-inf)' (60.26/3.99)
|   |   |   |   |   |   |   |   |   Copper > 0.107877: '(-inf-1.666667]' (6.01/1.97)
|   |   |   |   |   |   |   |   Tryglicerides > 0.141593: '(-inf-1.666667]' (8.02/1.97)
|   |   |   |   |   |   Copper > 0.205479: '(-inf-1.666667]' (164.34/2.01)
|   |   |   |   |   Hepatomegaly = N
|   |   |   |   |   |   SGOT <= 0.068809
|   |   |   |   |   |   |   Prothrombin <= 0.177778
|   |   |   |   |   |   |   |   N_Days <= 0.599495
|   |   |   |   |   |   |   |   |   N_Days <= 0.254312
|   |   |   |   |   |   |   |   |   |   Age <= 0.554745
|   |   |   |   |   |   |   |   |   |   |   N_Days <= 0.248633: '(-inf-1.666667]' (11.09)
|   |   |   |   |   |   |   |   |   |   |   N_Days > 0.248633
|   |   |   |   |   |   |   |   |   |   |   |   Age <= 0.525982: '(1.666667-2.333333]' (2.96)
|   |   |   |   |   |   |   |   |   |   |   |   Age > 0.525982: '(-inf-1.666667]' (3.02)
|   |   |   |   |   |   |   |   |   |   Age > 0.554745
|   |   |   |   |   |   |   |   |   |   |   Prothrombin <= 0.1: '(-inf-1.666667]' (2.02)
|   |   |   |   |   |   |   |   |   |   |   Prothrombin > 0.1: '(2.333333-inf)' (5.01/0.99)
|   |   |   |   |   |   |   |   |   N_Days > 0.254312
|   |   |   |   |   |   |   |   |   |   Status = C
|   |   |   |   |   |   |   |   |   |   |   Albumin <= 0.641791
|   |   |   |   |   |   |   |   |   |   |   |   Albumin <= 0.544776: '(-inf-1.666667]' (15.12)
|   |   |   |   |   |   |   |   |   |   |   |   Albumin > 0.544776: '(1.666667-2.333333]' (30.63/1.01)
|   |   |   |   |   |   |   |   |   |   |   Albumin > 0.641791: '(-inf-1.666667]' (83.62/2.96)
|   |   |   |   |   |   |   |   |   |   Status = D: '(-inf-1.666667]' (45.37)
|   |   |   |   |   |   |   |   |   |   Status = CL: '(-inf-1.666667]' (0.0)
|   |   |   |   |   |   |   |   N_Days > 0.599495
|   |   |   |   |   |   |   |   |   Status = C
|   |   |   |   |   |   |   |   |   |   Prothrombin <= 0.111111: '(-inf-1.666667]' (10.06/0.99)
|   |   |   |   |   |   |   |   |   |   Prothrombin > 0.111111
|   |   |   |   |   |   |   |   |   |   |   Platelets <= 0.2261: '(-inf-1.666667]' (4.03)
|   |   |   |   |   |   |   |   |   |   |   Platelets > 0.2261: '(1.666667-2.333333]' (24.7/1.01)
|   |   |   |   |   |   |   |   |   Status = D: '(-inf-1.666667]' (2.01/1.0)
|   |   |   |   |   |   |   |   |   Status = CL: '(1.666667-2.333333]' (0.0)
|   |   |   |   |   |   |   Prothrombin > 0.177778
|   |   |   |   |   |   |   |   Platelets <= 0.540212: '(1.666667-2.333333]' (40.48)
|   |   |   |   |   |   |   |   Platelets > 0.540212: '(-inf-1.666667]' (9.07)
|   |   |   |   |   |   SGOT > 0.068809
|   |   |   |   |   |   |   Copper <= 0.039384
|   |   |   |   |   |   |   |   Albumin <= 0.615672: '(-inf-1.666667]' (30.23/0.99)
|   |   |   |   |   |   |   |   Albumin > 0.615672
|   |   |   |   |   |   |   |   |   Platelets <= 0.420334: '(1.666667-2.333333]' (4.94)
|   |   |   |   |   |   |   |   |   Platelets > 0.420334: '(-inf-1.666667]' (2.02)
|   |   |   |   |   |   |   Copper > 0.039384: '(-inf-1.666667]' (649.06/14.86)
|   |   |   |   Albumin > 0.787313
|   |   |   |   |   Tryglicerides <= 0.107965: '(1.666667-2.333333]' (55.31/1.01)
|   |   |   |   |   Tryglicerides > 0.107965
|   |   |   |   |   |   SGOT <= 0.046763: '(1.666667-2.333333]' (2.96)
|   |   |   |   |   |   SGOT > 0.046763
|   |   |   |   |   |   |   Ascites = N: '(-inf-1.666667]' (46.32/2.96)
|   |   |   |   |   |   |   Ascites = Y
|   |   |   |   |   |   |   |   Albumin <= 0.873134: '(-inf-1.666667]' (2.02)
|   |   |   |   |   |   |   |   Albumin > 0.873134: '(1.666667-2.333333]' (3.95)
|   |   |   Tryglicerides > 0.180531
|   |   |   |   Albumin <= 0.794776
|   |   |   |   |   Prothrombin <= 0.044444: '(-inf-1.666667]' (10.08)
|   |   |   |   |   Prothrombin > 0.044444
|   |   |   |   |   |   Age <= 0.226748
|   |   |   |   |   |   |   Platelets <= 0.268589: '(-inf-1.666667]' (17.14)
|   |   |   |   |   |   |   Platelets > 0.268589
|   |   |   |   |   |   |   |   Age <= 0.198404: '(1.666667-2.333333]' (4.94)
|   |   |   |   |   |   |   |   Age > 0.198404: '(-inf-1.666667]' (3.02)
|   |   |   |   |   |   Age > 0.226748
|   |   |   |   |   |   |   Platelets <= 0.471927
|   |   |   |   |   |   |   |   N_Days <= 0.326252
|   |   |   |   |   |   |   |   |   N_Days <= 0.305217: '(-inf-1.666667]' (9.03/1.97)
|   |   |   |   |   |   |   |   |   N_Days > 0.305217: '(2.333333-inf)' (3.01)
|   |   |   |   |   |   |   |   N_Days > 0.326252
|   |   |   |   |   |   |   |   |   Status = C
|   |   |   |   |   |   |   |   |   |   Cholesterol <= 0.062236
|   |   |   |   |   |   |   |   |   |   |   Sex = F
|   |   |   |   |   |   |   |   |   |   |   |   Age <= 0.588967: '(1.666667-2.333333]' (7.92/1.01)
|   |   |   |   |   |   |   |   |   |   |   |   Age > 0.588967: '(-inf-1.666667]' (2.02)
|   |   |   |   |   |   |   |   |   |   |   Sex = M: '(2.333333-inf)' (2.01)
|   |   |   |   |   |   |   |   |   |   Cholesterol > 0.062236
|   |   |   |   |   |   |   |   |   |   |   Sex = F: '(1.666667-2.333333]' (138.45/12.09)
|   |   |   |   |   |   |   |   |   |   |   Sex = M
|   |   |   |   |   |   |   |   |   |   |   |   Albumin <= 0.75: '(1.666667-2.333333]' (24.7/1.01)
|   |   |   |   |   |   |   |   |   |   |   |   Albumin > 0.75: '(-inf-1.666667]' (4.03)
|   |   |   |   |   |   |   |   |   Status = D: '(1.666667-2.333333]' (2.98/1.01)
|   |   |   |   |   |   |   |   |   Status = CL
|   |   |   |   |   |   |   |   |   |   N_Days <= 0.435423: '(-inf-1.666667]' (3.02)
|   |   |   |   |   |   |   |   |   |   N_Days > 0.435423: '(1.666667-2.333333]' (10.88/1.01)
|   |   |   |   |   |   |   Platelets > 0.471927
|   |   |   |   |   |   |   |   Tryglicerides <= 0.318584: '(-inf-1.666667]' (13.09/0.99)
|   |   |   |   |   |   |   |   Tryglicerides > 0.318584: '(1.666667-2.333333]' (2.98/1.0)
|   |   |   |   Albumin > 0.794776: '(-inf-1.666667]' (20.14/0.99)
|   |   Bilirubin > 0.050542
|   |   |   N_Days <= 0.342238
|   |   |   |   Drug = Placebo
|   |   |   |   |   Prothrombin <= 0.088889: '(1.666667-2.333333]' (4.94)
|   |   |   |   |   Prothrombin > 0.088889: '(2.333333-inf)' (5.01/2.0)
|   |   |   |   Drug = D-penicillamine
|   |   |   |   |   Platelets <= 0.403642: '(1.666667-2.333333]' (3.95)
|   |   |   |   |   Platelets > 0.403642: '(-inf-1.666667]' (11.09)
|   |   |   N_Days > 0.342238
|   |   |   |   Prothrombin <= 0.1
|   |   |   |   |   Prothrombin <= 0.088889: '(2.333333-inf)' (7.03)
|   |   |   |   |   Prothrombin > 0.088889: '(1.666667-2.333333]' (5.94/1.0)
|   |   |   |   Prothrombin > 0.1: '(2.333333-inf)' (47.21/0.99)
|   SGOT > 0.1013
|   |   Copper <= 0.313356
|   |   |   Albumin <= 0.58209
|   |   |   |   Prothrombin <= 0.144444
|   |   |   |   |   Bilirubin <= 0.01083
|   |   |   |   |   |   Prothrombin <= 0.111111
|   |   |   |   |   |   |   Albumin <= 0.563433
|   |   |   |   |   |   |   |   N_Days <= 0.372108
|   |   |   |   |   |   |   |   |   Sex = F
|   |   |   |   |   |   |   |   |   |   Prothrombin <= 0.077778: '(1.666667-2.333333]' (3.97/1.0)
|   |   |   |   |   |   |   |   |   |   Prothrombin > 0.077778
|   |   |   |   |   |   |   |   |   |   |   Bilirubin <= 0.00722: '(-inf-1.666667]' (6.05)
|   |   |   |   |   |   |   |   |   |   |   Bilirubin > 0.00722: '(2.333333-inf)' (3.02/1.01)
|   |   |   |   |   |   |   |   |   Sex = M: '(1.666667-2.333333]' (2.96)
|   |   |   |   |   |   |   |   N_Days > 0.372108
|   |   |   |   |   |   |   |   |   Bilirubin <= 0.00722
|   |   |   |   |   |   |   |   |   |   Age <= 0.478427: '(1.666667-2.333333]' (5.94/1.01)
|   |   |   |   |   |   |   |   |   |   Age > 0.478427: '(-inf-1.666667]' (14.09/0.99)
|   |   |   |   |   |   |   |   |   Bilirubin > 0.00722: '(-inf-1.666667]' (299.39/2.96)
|   |   |   |   |   |   |   Albumin > 0.563433: '(1.666667-2.333333]' (18.76)
|   |   |   |   |   |   Prothrombin > 0.111111
|   |   |   |   |   |   |   Albumin <= 0.529851: '(2.333333-inf)' (21.1)
|   |   |   |   |   |   |   Albumin > 0.529851
|   |   |   |   |   |   |   |   SGOT <= 0.158273: '(-inf-1.666667]' (8.07)
|   |   |   |   |   |   |   |   SGOT > 0.158273
|   |   |   |   |   |   |   |   |   Platelets <= 0.455235: '(1.666667-2.333333]' (33.63/3.02)
|   |   |   |   |   |   |   |   |   Platelets > 0.455235: '(2.333333-inf)' (2.01)
|   |   |   |   |   Bilirubin > 0.01083
|   |   |   |   |   |   Copper <= 0.046233
|   |   |   |   |   |   |   Edema = N
|   |   |   |   |   |   |   |   Cholesterol <= 0.068278: '(2.333333-inf)' (6.03/1.01)
|   |   |   |   |   |   |   |   Cholesterol > 0.068278
|   |   |   |   |   |   |   |   |   Prothrombin <= 0.133333
|   |   |   |   |   |   |   |   |   |   Albumin <= 0.511194
|   |   |   |   |   |   |   |   |   |   |   N_Days <= 0.427009: '(1.666667-2.333333]' (3.97/1.0)
|   |   |   |   |   |   |   |   |   |   |   N_Days > 0.427009: '(-inf-1.666667]' (2.02)
|   |   |   |   |   |   |   |   |   |   Albumin > 0.511194: '(-inf-1.666667]' (147.18/1.99)
|   |   |   |   |   |   |   |   |   Prothrombin > 0.133333
|   |   |   |   |   |   |   |   |   |   Age <= 0.573063: '(-inf-1.666667]' (3.02)
|   |   |   |   |   |   |   |   |   |   Age > 0.573063: '(1.666667-2.333333]' (4.94)
|   |   |   |   |   |   |   Edema = Y: '(-inf-1.666667]' (0.0)
|   |   |   |   |   |   |   Edema = S: '(2.333333-inf)' (4.02)
|   |   |   |   |   |   Copper > 0.046233
|   |   |   |   |   |   |   Age <= 0.695937
|   |   |   |   |   |   |   |   SGOT <= 0.10362: '(2.333333-inf)' (40.17/0.99)
|   |   |   |   |   |   |   |   SGOT > 0.10362
|   |   |   |   |   |   |   |   |   N_Days <= 0.48191
|   |   |   |   |   |   |   |   |   |   N_Days <= 0.188052
|   |   |   |   |   |   |   |   |   |   |   Cholesterol <= 0.246526
|   |   |   |   |   |   |   |   |   |   |   |   N_Days <= 0.172066
|   |   |   |   |   |   |   |   |   |   |   |   |   Bilirubin <= 0.032491
|   |   |   |   |   |   |   |   |   |   |   |   |   |   Prothrombin <= 0.1: '(2.333333-inf)' (33.16/2.02)
|   |   |   |   |   |   |   |   |   |   |   |   |   |   Prothrombin > 0.1: '(1.666667-2.333333]' (3.97/1.0)
|   |   |   |   |   |   |   |   |   |   |   |   |   Bilirubin > 0.032491
|   |   |   |   |   |   |   |   |   |   |   |   |   |   Albumin <= 0.302239
|   |   |   |   |   |   |   |   |   |   |   |   |   |   |   Age <= 0.425415: '(1.666667-2.333333]' (2.98/1.0)
|   |   |   |   |   |   |   |   |   |   |   |   |   |   |   Age > 0.425415: '(2.333333-inf)' (7.03)
|   |   |   |   |   |   |   |   |   |   |   |   |   |   Albumin > 0.302239
|   |   |   |   |   |   |   |   |   |   |   |   |   |   |   Albumin <= 0.380597: '(-inf-1.666667]' (23.17/0.99)
|   |   |   |   |   |   |   |   |   |   |   |   |   |   |   Albumin > 0.380597
|   |   |   |   |   |   |   |   |   |   |   |   |   |   |   |   Edema = N
|   |   |   |   |   |   |   |   |   |   |   |   |   |   |   |   |   N_Days <= 0.155448
|   |   |   |   |   |   |   |   |   |   |   |   |   |   |   |   |   |   N_Days <= 0.134623
|   |   |   |   |   |   |   |   |   |   |   |   |   |   |   |   |   |   |   N_Days <= 0.033025
|   |   |   |   |   |   |   |   |   |   |   |   |   |   |   |   |   |   |   |   Platelets <= 0.292868
|   |   |   |   |   |   |   |   |   |   |   |   |   |   |   |   |   |   |   |   |   Ascites = N: '(-inf-1.666667]' (8.07)
|   |   |   |   |   |   |   |   |   |   |   |   |   |   |   |   |   |   |   |   |   Ascites = Y: '(2.333333-inf)' (3.02/1.01)
|   |   |   |   |   |   |   |   |   |   |   |   |   |   |   |   |   |   |   |   Platelets > 0.292868: '(2.333333-inf)' (9.03/2.0)
|   |   |   |   |   |   |   |   |   |   |   |   |   |   |   |   |   |   |   N_Days > 0.033025
|   |   |   |   |   |   |   |   |   |   |   |   |   |   |   |   |   |   |   |   Drug = Placebo
|   |   |   |   |   |   |   |   |   |   |   |   |   |   |   |   |   |   |   |   |   Age <= 0.315085: '(1.666667-2.333333]' (4.94)
|   |   |   |   |   |   |   |   |   |   |   |   |   |   |   |   |   |   |   |   |   Age > 0.315085
|   |   |   |   |   |   |   |   |   |   |   |   |   |   |   |   |   |   |   |   |   |   N_Days <= 0.055322
|   |   |   |   |   |   |   |   |   |   |   |   |   |   |   |   |   |   |   |   |   |   |   Platelets <= 0.441578: '(1.666667-2.333333]' (3.95)
|   |   |   |   |   |   |   |   |   |   |   |   |   |   |   |   |   |   |   |   |   |   |   Platelets > 0.441578: '(-inf-1.666667]' (2.02)
|   |   |   |   |   |   |   |   |   |   |   |   |   |   |   |   |   |   |   |   |   |   N_Days > 0.055322: '(-inf-1.666667]' (13.09/0.99)
|   |   |   |   |   |   |   |   |   |   |   |   |   |   |   |   |   |   |   |   Drug = D-penicillamine
|   |   |   |   |   |   |   |   |   |   |   |   |   |   |   |   |   |   |   |   |   Hepatomegaly = Y: '(2.333333-inf)' (2.01)
|   |   |   |   |   |   |   |   |   |   |   |   |   |   |   |   |   |   |   |   |   Hepatomegaly = N
|   |   |   |   |   |   |   |   |   |   |   |   |   |   |   |   |   |   |   |   |   |   Cholesterol <= 0.165559
|   |   |   |   |   |   |   |   |   |   |   |   |   |   |   |   |   |   |   |   |   |   |   Age <= 0.280338: '(2.333333-inf)' (2.01)
|   |   |   |   |   |   |   |   |   |   |   |   |   |   |   |   |   |   |   |   |   |   |   Age > 0.280338: '(1.666667-2.333333]' (4.98/2.02)
|   |   |   |   |   |   |   |   |   |   |   |   |   |   |   |   |   |   |   |   |   |   Cholesterol > 0.165559: '(-inf-1.666667]' (3.02)
|   |   |   |   |   |   |   |   |   |   |   |   |   |   |   |   |   |   N_Days > 0.134623: '(2.333333-inf)' (8.02/0.99)
|   |   |   |   |   |   |   |   |   |   |   |   |   |   |   |   |   N_Days > 0.155448: '(-inf-1.666667]' (7.06)
|   |   |   |   |   |   |   |   |   |   |   |   |   |   |   |   Edema = Y: '(-inf-1.666667]' (0.0)
|   |   |   |   |   |   |   |   |   |   |   |   |   |   |   |   Edema = S
|   |   |   |   |   |   |   |   |   |   |   |   |   |   |   |   |   Age <= 0.589282: '(1.666667-2.333333]' (16.87/4.03)
|   |   |   |   |   |   |   |   |   |   |   |   |   |   |   |   |   Age > 0.589282
|   |   |   |   |   |   |   |   |   |   |   |   |   |   |   |   |   |   Drug = Placebo: '(-inf-1.666667]' (2.02)
|   |   |   |   |   |   |   |   |   |   |   |   |   |   |   |   |   |   Drug = D-penicillamine: '(2.333333-inf)' (2.01)
|   |   |   |   |   |   |   |   |   |   |   |   N_Days > 0.172066: '(2.333333-inf)' (61.27/0.99)
|   |   |   |   |   |   |   |   |   |   |   Cholesterol > 0.246526
|   |   |   |   |   |   |   |   |   |   |   |   N_Days <= 0.164703: '(1.666667-2.333333]' (31.61/1.01)
|   |   |   |   |   |   |   |   |   |   |   |   N_Days > 0.164703: '(-inf-1.666667]' (2.01/1.0)
|   |   |   |   |   |   |   |   |   |   N_Days > 0.188052
|   |   |   |   |   |   |   |   |   |   |   Tryglicerides <= 0.069027
|   |   |   |   |   |   |   |   |   |   |   |   Cholesterol <= 0.113595
|   |   |   |   |   |   |   |   |   |   |   |   |   Ascites = N
|   |   |   |   |   |   |   |   |   |   |   |   |   |   Copper <= 0.058219: '(2.333333-inf)' (3.02/1.01)
|   |   |   |   |   |   |   |   |   |   |   |   |   |   Copper > 0.058219: '(1.666667-2.333333]' (10.9/2.01)
|   |   |   |   |   |   |   |   |   |   |   |   |   Ascites = Y: '(-inf-1.666667]' (3.02/1.0)
|   |   |   |   |   |   |   |   |   |   |   |   Cholesterol > 0.113595
|   |   |   |   |   |   |   |   |   |   |   |   |   Albumin <= 0.5: '(2.333333-inf)' (4.0/2.0)
|   |   |   |   |   |   |   |   |   |   |   |   |   Albumin > 0.5: '(-inf-1.666667]' (105.7/8.9)
|   |   |   |   |   |   |   |   |   |   |   Tryglicerides > 0.069027
|   |   |   |   |   |   |   |   |   |   |   |   Platelets <= 0.259484
|   |   |   |   |   |   |   |   |   |   |   |   |   Platelets <= 0.103187
|   |   |   |   |   |   |   |   |   |   |   |   |   |   Albumin <= 0.518657: '(-inf-1.666667]' (26.21)
|   |   |   |   |   |   |   |   |   |   |   |   |   |   Albumin > 0.518657
|   |   |   |   |   |   |   |   |   |   |   |   |   |   |   N_Days <= 0.251157: '(2.333333-inf)' (3.01)
|   |   |   |   |   |   |   |   |   |   |   |   |   |   |   N_Days > 0.251157: '(1.666667-2.333333]' (2.96)
|   |   |   |   |   |   |   |   |   |   |   |   |   Platelets > 0.103187
|   |   |   |   |   |   |   |   |   |   |   |   |   |   Edema = N
|   |   |   |   |   |   |   |   |   |   |   |   |   |   |   Bilirubin <= 0.115523
|   |   |   |   |   |   |   |   |   |   |   |   |   |   |   |   Bilirubin <= 0.021661
|   |   |   |   |   |   |   |   |   |   |   |   |   |   |   |   |   Copper <= 0.114726: '(1.666667-2.333333]' (61.21)
|   |   |   |   |   |   |   |   |   |   |   |   |   |   |   |   |   Copper > 0.114726
|   |   |   |   |   |   |   |   |   |   |   |   |   |   |   |   |   |   Platelets <= 0.218513: '(-inf-1.666667]' (22.18/1.0)
|   |   |   |   |   |   |   |   |   |   |   |   |   |   |   |   |   |   Platelets > 0.218513: '(1.666667-2.333333]' (5.97/2.02)
|   |   |   |   |   |   |   |   |   |   |   |   |   |   |   |   Bilirubin > 0.021661: '(1.666667-2.333333]' (410.06/17.14)
|   |   |   |   |   |   |   |   |   |   |   |   |   |   |   Bilirubin > 0.115523
|   |   |   |   |   |   |   |   |   |   |   |   |   |   |   |   Bilirubin <= 0.126354: '(-inf-1.666667]' (11.09)
|   |   |   |   |   |   |   |   |   |   |   |   |   |   |   |   Bilirubin > 0.126354
|   |   |   |   |   |   |   |   |   |   |   |   |   |   |   |   |   Bilirubin <= 0.574007: '(1.666667-2.333333]' (21.78/3.02)
|   |   |   |   |   |   |   |   |   |   |   |   |   |   |   |   |   Bilirubin > 0.574007: '(-inf-1.666667]' (4.03)
|   |   |   |   |   |   |   |   |   |   |   |   |   |   Edema = Y: '(2.333333-inf)' (2.01)
|   |   |   |   |   |   |   |   |   |   |   |   |   |   Edema = S
|   |   |   |   |   |   |   |   |   |   |   |   |   |   |   Platelets <= 0.253414
|   |   |   |   |   |   |   |   |   |   |   |   |   |   |   |   Albumin <= 0.429104: '(2.333333-inf)' (8.04)
|   |   |   |   |   |   |   |   |   |   |   |   |   |   |   |   Albumin > 0.429104
|   |   |   |   |   |   |   |   |   |   |   |   |   |   |   |   |   Platelets <= 0.247344: '(-inf-1.666667]' (2.02)
|   |   |   |   |   |   |   |   |   |   |   |   |   |   |   |   |   Platelets > 0.247344: '(2.333333-inf)' (2.01)
|   |   |   |   |   |   |   |   |   |   |   |   |   |   |   Platelets > 0.253414: '(1.666667-2.333333]' (10.86)
|   |   |   |   |   |   |   |   |   |   |   |   Platelets > 0.259484
|   |   |   |   |   |   |   |   |   |   |   |   |   Copper <= 0.190068
|   |   |   |   |   |   |   |   |   |   |   |   |   |   Platelets <= 0.364188
|   |   |   |   |   |   |   |   |   |   |   |   |   |   |   Albumin <= 0.466418
|   |   |   |   |   |   |   |   |   |   |   |   |   |   |   |   Sex = F
|   |   |   |   |   |   |   |   |   |   |   |   |   |   |   |   |   Albumin <= 0.429104
|   |   |   |   |   |   |   |   |   |   |   |   |   |   |   |   |   |   Hepatomegaly = Y: '(2.333333-inf)' (5.02)
|   |   |   |   |   |   |   |   |   |   |   |   |   |   |   |   |   |   Hepatomegaly = N
|   |   |   |   |   |   |   |   |   |   |   |   |   |   |   |   |   |   |   N_Days <= 0.278082: '(-inf-1.666667]' (3.02)
|   |   |   |   |   |   |   |   |   |   |   |   |   |   |   |   |   |   |   N_Days > 0.278082: '(2.333333-inf)' (2.01)
|   |   |   |   |   |   |   |   |   |   |   |   |   |   |   |   |   Albumin > 0.429104: '(1.666667-2.333333]' (3.97/1.0)
|   |   |   |   |   |   |   |   |   |   |   |   |   |   |   |   Sex = M: '(1.666667-2.333333]' (2.96)
|   |   |   |   |   |   |   |   |   |   |   |   |   |   |   Albumin > 0.466418
|   |   |   |   |   |   |   |   |   |   |   |   |   |   |   |   Cholesterol <= 0.123263
|   |   |   |   |   |   |   |   |   |   |   |   |   |   |   |   |   Platelets <= 0.276176: '(-inf-1.666667]' (8.05/0.99)
|   |   |   |   |   |   |   |   |   |   |   |   |   |   |   |   |   Platelets > 0.276176
|   |   |   |   |   |   |   |   |   |   |   |   |   |   |   |   |   |   Hepatomegaly = Y: '(1.666667-2.333333]' (14.81)
|   |   |   |   |   |   |   |   |   |   |   |   |   |   |   |   |   |   Hepatomegaly = N
|   |   |   |   |   |   |   |   |   |   |   |   |   |   |   |   |   |   |   Platelets <= 0.31563: '(1.666667-2.333333]' (18.76)
|   |   |   |   |   |   |   |   |   |   |   |   |   |   |   |   |   |   |   Platelets > 0.31563: '(-inf-1.666667]' (3.02)
|   |   |   |   |   |   |   |   |   |   |   |   |   |   |   |   Cholesterol > 0.123263
|   |   |   |   |   |   |   |   |   |   |   |   |   |   |   |   |   Prothrombin <= 0.133333
|   |   |   |   |   |   |   |   |   |   |   |   |   |   |   |   |   |   SGOT <= 0.186006
|   |   |   |   |   |   |   |   |   |   |   |   |   |   |   |   |   |   |   Hepatomegaly = Y: '(1.666667-2.333333]' (7.9)
|   |   |   |   |   |   |   |   |   |   |   |   |   |   |   |   |   |   |   Hepatomegaly = N
|   |   |   |   |   |   |   |   |   |   |   |   |   |   |   |   |   |   |   |   Age <= 0.438222: '(1.666667-2.333333]' (3.97/1.01)
|   |   |   |   |   |   |   |   |   |   |   |   |   |   |   |   |   |   |   |   Age > 0.438222: '(-inf-1.666667]' (15.08/1.97)
|   |   |   |   |   |   |   |   |   |   |   |   |   |   |   |   |   |   SGOT > 0.186006
|   |   |   |   |   |   |   |   |   |   |   |   |   |   |   |   |   |   |   Age <= 0.355658
|   |   |   |   |   |   |   |   |   |   |   |   |   |   |   |   |   |   |   |   Age <= 0.320596
|   |   |   |   |   |   |   |   |   |   |   |   |   |   |   |   |   |   |   |   |   N_Days <= 0.316155
|   |   |   |   |   |   |   |   |   |   |   |   |   |   |   |   |   |   |   |   |   |   N_Days <= 0.281237: '(-inf-1.666667]' (3.0/0.99)
|   |   |   |   |   |   |   |   |   |   |   |   |   |   |   |   |   |   |   |   |   |   N_Days > 0.281237: '(2.333333-inf)' (2.01)
|   |   |   |   |   |   |   |   |   |   |   |   |   |   |   |   |   |   |   |   |   N_Days > 0.316155: '(-inf-1.666667]' (7.06)
|   |   |   |   |   |   |   |   |   |   |   |   |   |   |   |   |   |   |   |   Age > 0.320596: '(1.666667-2.333333]' (6.93/1.01)
|   |   |   |   |   |   |   |   |   |   |   |   |   |   |   |   |   |   |   Age > 0.355658: '(-inf-1.666667]' (206.52/10.91)
|   |   |   |   |   |   |   |   |   |   |   |   |   |   |   |   |   Prothrombin > 0.133333
|   |   |   |   |   |   |   |   |   |   |   |   |   |   |   |   |   |   Platelets <= 0.301973: '(1.666667-2.333333]' (34.55)
|   |   |   |   |   |   |   |   |   |   |   |   |   |   |   |   |   |   Platelets > 0.301973: '(-inf-1.666667]' (17.14)
|   |   |   |   |   |   |   |   |   |   |   |   |   |   Platelets > 0.364188
|   |   |   |   |   |   |   |   |   |   |   |   |   |   |   Platelets <= 0.496206
|   |   |   |   |   |   |   |   |   |   |   |   |   |   |   |   Prothrombin <= 0.1
|   |   |   |   |   |   |   |   |   |   |   |   |   |   |   |   |   Platelets <= 0.437026
|   |   |   |   |   |   |   |   |   |   |   |   |   |   |   |   |   |   Albumin <= 0.406716: '(-inf-1.666667]' (3.02)
|   |   |   |   |   |   |   |   |   |   |   |   |   |   |   |   |   |   Albumin > 0.406716
|   |   |   |   |   |   |   |   |   |   |   |   |   |   |   |   |   |   |   Copper <= 0.131849: '(1.666667-2.333333]' (9.87)
|   |   |   |   |   |   |   |   |   |   |   |   |   |   |   |   |   |   |   Copper > 0.131849
|   |   |   |   |   |   |   |   |   |   |   |   |   |   |   |   |   |   |   |   Age <= 0.234201
|   |   |   |   |   |   |   |   |   |   |   |   |   |   |   |   |   |   |   |   |   Bilirubin <= 0.021661: '(2.333333-inf)' (2.01)
|   |   |   |   |   |   |   |   |   |   |   |   |   |   |   |   |   |   |   |   |   Bilirubin > 0.021661: '(1.666667-2.333333]' (4.94)
|   |   |   |   |   |   |   |   |   |   |   |   |   |   |   |   |   |   |   |   Age > 0.234201: '(2.333333-inf)' (7.03)
|   |   |   |   |   |   |   |   |   |   |   |   |   |   |   |   |   Platelets > 0.437026: '(-inf-1.666667]' (10.06/0.99)
|   |   |   |   |   |   |   |   |   |   |   |   |   |   |   |   Prothrombin > 0.1: '(1.666667-2.333333]' (92.9/5.03)
|   |   |   |   |   |   |   |   |   |   |   |   |   |   |   Platelets > 0.496206
|   |   |   |   |   |   |   |   |   |   |   |   |   |   |   |   Alk_Phos <= 0.073158
|   |   |   |   |   |   |   |   |   |   |   |   |   |   |   |   |   N_Days <= 0.288389: '(1.666667-2.333333]' (2.96)
|   |   |   |   |   |   |   |   |   |   |   |   |   |   |   |   |   N_Days > 0.288389: '(-inf-1.666667]' (4.03)
|   |   |   |   |   |   |   |   |   |   |   |   |   |   |   |   Alk_Phos > 0.073158: '(-inf-1.666667]' (30.23/0.99)
|   |   |   |   |   |   |   |   |   |   |   |   |   Copper > 0.190068
|   |   |   |   |   |   |   |   |   |   |   |   |   |   Cholesterol <= 0.153474
|   |   |   |   |   |   |   |   |   |   |   |   |   |   |   SGOT <= 0.395683
|   |   |   |   |   |   |   |   |   |   |   |   |   |   |   |   Copper <= 0.263699
|   |   |   |   |   |   |   |   |   |   |   |   |   |   |   |   |   Platelets <= 0.515933: '(2.333333-inf)' (43.16/4.98)
|   |   |   |   |   |   |   |   |   |   |   |   |   |   |   |   |   Platelets > 0.515933: '(-inf-1.666667]' (2.02)
|   |   |   |   |   |   |   |   |   |   |   |   |   |   |   |   Copper > 0.263699: '(-inf-1.666667]' (5.04)
|   |   |   |   |   |   |   |   |   |   |   |   |   |   |   SGOT > 0.395683: '(1.666667-2.333333]' (13.86/2.02)
|   |   |   |   |   |   |   |   |   |   |   |   |   |   Cholesterol > 0.153474: '(1.666667-2.333333]' (71.2/6.05)
|   |   |   |   |   |   |   |   |   N_Days > 0.48191
|   |   |   |   |   |   |   |   |   |   Albumin <= 0.570896
|   |   |   |   |   |   |   |   |   |   |   SGOT <= 0.107914
|   |   |   |   |   |   |   |   |   |   |   |   N_Days <= 0.697728: '(-inf-1.666667]' (2.02)
|   |   |   |   |   |   |   |   |   |   |   |   N_Days > 0.697728: '(1.666667-2.333333]' (23.74/2.02)
|   |   |   |   |   |   |   |   |   |   |   SGOT > 0.107914
|   |   |   |   |   |   |   |   |   |   |   |   Albumin <= 0.567164
|   |   |   |   |   |   |   |   |   |   |   |   |   Cholesterol <= 0.058006
|   |   |   |   |   |   |   |   |   |   |   |   |   |   Drug = Placebo
|   |   |   |   |   |   |   |   |   |   |   |   |   |   |   Hepatomegaly = Y: '(-inf-1.666667]' (2.02)
|   |   |   |   |   |   |   |   |   |   |   |   |   |   |   Hepatomegaly = N
|   |   |   |   |   |   |   |   |   |   |   |   |   |   |   |   Age <= 0.510655: '(1.666667-2.333333]' (19.74)
|   |   |   |   |   |   |   |   |   |   |   |   |   |   |   |   Age > 0.510655: '(-inf-1.666667]' (2.02)
|   |   |   |   |   |   |   |   |   |   |   |   |   |   Drug = D-penicillamine: '(-inf-1.666667]' (3.02)
|   |   |   |   |   |   |   |   |   |   |   |   |   Cholesterol > 0.058006
|   |   |   |   |   |   |   |   |   |   |   |   |   |   Edema = N
|   |   |   |   |   |   |   |   |   |   |   |   |   |   |   SGOT <= 0.140752
|   |   |   |   |   |   |   |   |   |   |   |   |   |   |   |   Ascites = N
|   |   |   |   |   |   |   |   |   |   |   |   |   |   |   |   |   Platelets <= 0.264036: '(1.666667-2.333333]' (2.98/1.01)
|   |   |   |   |   |   |   |   |   |   |   |   |   |   |   |   |   Platelets > 0.264036
|   |   |   |   |   |   |   |   |   |   |   |   |   |   |   |   |   |   Prothrombin <= 0.111111: '(-inf-1.666667]' (26.21)
|   |   |   |   |   |   |   |   |   |   |   |   |   |   |   |   |   |   Prothrombin > 0.111111: '(2.333333-inf)' (3.02/1.01)
|   |   |   |   |   |   |   |   |   |   |   |   |   |   |   |   Ascites = Y: '(2.333333-inf)' (6.03/1.01)
|   |   |   |   |   |   |   |   |   |   |   |   |   |   |   SGOT > 0.140752: '(-inf-1.666667]' (377.7/22.79)
|   |   |   |   |   |   |   |   |   |   |   |   |   |   Edema = Y: '(1.666667-2.333333]' (0.99)
|   |   |   |   |   |   |   |   |   |   |   |   |   |   Edema = S
|   |   |   |   |   |   |   |   |   |   |   |   |   |   |   Platelets <= 0.253414: '(2.333333-inf)' (3.02/1.01)
|   |   |   |   |   |   |   |   |   |   |   |   |   |   |   Platelets > 0.253414: '(1.666667-2.333333]' (3.95)
|   |   |   |   |   |   |   |   |   |   |   |   Albumin > 0.567164
|   |   |   |   |   |   |   |   |   |   |   |   |   Platelets <= 0.347496
|   |   |   |   |   |   |   |   |   |   |   |   |   |   Spiders = N: '(1.666667-2.333333]' (7.9)
|   |   |   |   |   |   |   |   |   |   |   |   |   |   Spiders = Y
|   |   |   |   |   |   |   |   |   |   |   |   |   |   |   Age <= 0.473966: '(-inf-1.666667]' (11.09)
|   |   |   |   |   |   |   |   |   |   |   |   |   |   |   Age > 0.473966: '(2.333333-inf)' (3.0/0.99)
|   |   |   |   |   |   |   |   |   |   |   |   |   Platelets > 0.347496: '(1.666667-2.333333]' (21.72)
|   |   |   |   |   |   |   |   |   |   Albumin > 0.570896: '(2.333333-inf)' (31.15)
|   |   |   |   |   |   |   Age > 0.695937
|   |   |   |   |   |   |   |   Platelets <= 0.382398
|   |   |   |   |   |   |   |   |   Prothrombin <= 0.1
|   |   |   |   |   |   |   |   |   |   Bilirubin <= 0.018051
|   |   |   |   |   |   |   |   |   |   |   Hepatomegaly = Y: '(1.666667-2.333333]' (5.94/1.01)
|   |   |   |   |   |   |   |   |   |   |   Hepatomegaly = N: '(-inf-1.666667]' (20.17)
|   |   |   |   |   |   |   |   |   |   Bilirubin > 0.018051
|   |   |   |   |   |   |   |   |   |   |   Age <= 0.764697: '(1.666667-2.333333]' (159.17/11.09)
|   |   |   |   |   |   |   |   |   |   |   Age > 0.764697
|   |   |   |   |   |   |   |   |   |   |   |   Copper <= 0.125
|   |   |   |   |   |   |   |   |   |   |   |   |   N_Days <= 0.621371: '(1.666667-2.333333]' (29.66/2.02)
|   |   |   |   |   |   |   |   |   |   |   |   |   N_Days > 0.621371: '(-inf-1.666667]' (4.01/0.99)
|   |   |   |   |   |   |   |   |   |   |   |   Copper > 0.125: '(-inf-1.666667]' (29.16/3.95)
|   |   |   |   |   |   |   |   |   Prothrombin > 0.1
|   |   |   |   |   |   |   |   |   |   Albumin <= 0.425373
|   |   |   |   |   |   |   |   |   |   |   Cholesterol <= 0.609063
|   |   |   |   |   |   |   |   |   |   |   |   N_Days <= 0.478965: '(2.333333-inf)' (54.26)
|   |   |   |   |   |   |   |   |   |   |   |   N_Days > 0.478965: '(-inf-1.666667]' (2.02)
|   |   |   |   |   |   |   |   |   |   |   Cholesterol > 0.609063: '(1.666667-2.333333]' (2.96)
|   |   |   |   |   |   |   |   |   |   Albumin > 0.425373
|   |   |   |   |   |   |   |   |   |   |   Platelets <= 0.127466: '(1.666667-2.333333]' (82.93)
|   |   |   |   |   |   |   |   |   |   |   Platelets > 0.127466
|   |   |   |   |   |   |   |   |   |   |   |   Albumin <= 0.518657
|   |   |   |   |   |   |   |   |   |   |   |   |   Bilirubin <= 0.638989: '(2.333333-inf)' (74.32/1.97)
|   |   |   |   |   |   |   |   |   |   |   |   |   Bilirubin > 0.638989: '(1.666667-2.333333]' (7.9)
|   |   |   |   |   |   |   |   |   |   |   |   Albumin > 0.518657: '(1.666667-2.333333]' (44.45/1.01)
|   |   |   |   |   |   |   |   Platelets > 0.382398
|   |   |   |   |   |   |   |   |   Platelets <= 0.47041: '(2.333333-inf)' (189.86/1.97)
|   |   |   |   |   |   |   |   |   Platelets > 0.47041
|   |   |   |   |   |   |   |   |   |   Platelets <= 0.515933: '(-inf-1.666667]' (2.02)
|   |   |   |   |   |   |   |   |   |   Platelets > 0.515933: '(2.333333-inf)' (6.03)
|   |   |   |   Prothrombin > 0.144444
|   |   |   |   |   Platelets <= 0.106222
|   |   |   |   |   |   Bilirubin <= 0.01444
|   |   |   |   |   |   |   Bilirubin <= 0.00722: '(1.666667-2.333333]' (4.96/1.01)
|   |   |   |   |   |   |   Bilirubin > 0.00722: '(2.333333-inf)' (15.05/0.99)
|   |   |   |   |   |   Bilirubin > 0.01444
|   |   |   |   |   |   |   Albumin <= 0.485075
|   |   |   |   |   |   |   |   Albumin <= 0.462687: '(2.333333-inf)' (84.35/4.98)
|   |   |   |   |   |   |   |   Albumin > 0.462687: '(1.666667-2.333333]' (3.95)
|   |   |   |   |   |   |   Albumin > 0.485075: '(2.333333-inf)' (158.73/0.99)
|   |   |   |   |   Platelets > 0.106222
|   |   |   |   |   |   Albumin <= 0.350746
|   |   |   |   |   |   |   Albumin <= 0.302239
|   |   |   |   |   |   |   |   Bilirubin <= 0.104693
|   |   |   |   |   |   |   |   |   Albumin <= 0.246269: '(1.666667-2.333333]' (9.87)
|   |   |   |   |   |   |   |   |   Albumin > 0.246269: '(-inf-1.666667]' (2.02)
|   |   |   |   |   |   |   |   Bilirubin > 0.104693
|   |   |   |   |   |   |   |   |   Copper <= 0.191781: '(2.333333-inf)' (84.4)
|   |   |   |   |   |   |   |   |   Copper > 0.191781
|   |   |   |   |   |   |   |   |   |   Ascites = N: '(2.333333-inf)' (3.01)
|   |   |   |   |   |   |   |   |   |   Ascites = Y: '(1.666667-2.333333]' (3.97/1.0)
|   |   |   |   |   |   |   Albumin > 0.302239
|   |   |   |   |   |   |   |   Prothrombin <= 0.192415
|   |   |   |   |   |   |   |   |   Hepatomegaly = Y
|   |   |   |   |   |   |   |   |   |   Cholesterol <= 0.178852: '(-inf-1.666667]' (4.03/1.0)
|   |   |   |   |   |   |   |   |   |   Cholesterol > 0.178852: '(2.333333-inf)' (2.01)
|   |   |   |   |   |   |   |   |   Hepatomegaly = N
|   |   |   |   |   |   |   |   |   |   Bilirubin <= 0.350181: '(-inf-1.666667]' (165.36)
|   |   |   |   |   |   |   |   |   |   Bilirubin > 0.350181
|   |   |   |   |   |   |   |   |   |   |   Bilirubin <= 0.422383: '(-inf-1.666667]' (5.04)
|   |   |   |   |   |   |   |   |   |   |   Bilirubin > 0.422383: '(2.333333-inf)' (2.01)
|   |   |   |   |   |   |   |   Prothrombin > 0.192415
|   |   |   |   |   |   |   |   |   Prothrombin <= 0.2: '(2.333333-inf)' (4.02)
|   |   |   |   |   |   |   |   |   Prothrombin > 0.2: '(1.666667-2.333333]' (3.95)
|   |   |   |   |   |   Albumin > 0.350746
|   |   |   |   |   |   |   Albumin <= 0.380597
|   |   |   |   |   |   |   |   Prothrombin <= 0.166667: '(-inf-1.666667]' (28.21/0.99)
|   |   |   |   |   |   |   |   Prothrombin > 0.166667
|   |   |   |   |   |   |   |   |   N_Days <= 0.002103
|   |   |   |   |   |   |   |   |   |   Sex = F
|   |   |   |   |   |   |   |   |   |   |   Spiders = N: '(-inf-1.666667]' (2.02)
|   |   |   |   |   |   |   |   |   |   |   Spiders = Y: '(1.666667-2.333333]' (2.96)
|   |   |   |   |   |   |   |   |   |   Sex = M: '(-inf-1.666667]' (2.02)
|   |   |   |   |   |   |   |   |   N_Days > 0.002103
|   |   |   |   |   |   |   |   |   |   Copper <= 0.160357: '(1.666667-2.333333]' (166.89/2.02)
|   |   |   |   |   |   |   |   |   |   Copper > 0.160357
|   |   |   |   |   |   |   |   |   |   |   Age <= 0.581881: '(1.666667-2.333333]' (3.95)
|   |   |   |   |   |   |   |   |   |   |   Age > 0.581881: '(-inf-1.666667]' (2.02)
|   |   |   |   |   |   |   Albumin > 0.380597
|   |   |   |   |   |   |   |   Bilirubin <= 0.00722
|   |   |   |   |   |   |   |   |   Albumin <= 0.429104
|   |   |   |   |   |   |   |   |   |   Age <= 0.435597
|   |   |   |   |   |   |   |   |   |   |   N_Days <= 0.339924: '(1.666667-2.333333]' (5.92)
|   |   |   |   |   |   |   |   |   |   |   N_Days > 0.339924: '(2.333333-inf)' (3.02/1.01)
|   |   |   |   |   |   |   |   |   |   Age > 0.435597: '(1.666667-2.333333]' (57.3/2.02)
|   |   |   |   |   |   |   |   |   Albumin > 0.429104
|   |   |   |   |   |   |   |   |   |   Albumin <= 0.563433: '(-inf-1.666667]' (57.44/3.0)
|   |   |   |   |   |   |   |   |   |   Albumin > 0.563433: '(1.666667-2.333333]' (2.98/1.0)
|   |   |   |   |   |   |   |   Bilirubin > 0.00722
|   |   |   |   |   |   |   |   |   N_Days <= 0.949727
|   |   |   |   |   |   |   |   |   |   Age <= 0.507663
|   |   |   |   |   |   |   |   |   |   |   Platelets <= 0.408194
|   |   |   |   |   |   |   |   |   |   |   |   Tryglicerides <= 0.138053
|   |   |   |   |   |   |   |   |   |   |   |   |   N_Days <= 0.543963
|   |   |   |   |   |   |   |   |   |   |   |   |   |   Edema = N
|   |   |   |   |   |   |   |   |   |   |   |   |   |   |   Platelets <= 0.182094
|   |   |   |   |   |   |   |   |   |   |   |   |   |   |   |   Hepatomegaly = Y: '(1.666667-2.333333]' (9.89/1.0)
|   |   |   |   |   |   |   |   |   |   |   |   |   |   |   |   Hepatomegaly = N: '(-inf-1.666667]' (6.03/0.99)
|   |   |   |   |   |   |   |   |   |   |   |   |   |   |   Platelets > 0.182094
|   |   |   |   |   |   |   |   |   |   |   |   |   |   |   |   Platelets <= 0.371775
|   |   |   |   |   |   |   |   |   |   |   |   |   |   |   |   |   Tryglicerides <= 0.042478
|   |   |   |   |   |   |   |   |   |   |   |   |   |   |   |   |   |   Cholesterol <= 0.152266: '(2.333333-inf)' (8.04/1.01)
|   |   |   |   |   |   |   |   |   |   |   |   |   |   |   |   |   |   Cholesterol > 0.152266: '(1.666667-2.333333]' (7.92/1.01)
|   |   |   |   |   |   |   |   |   |   |   |   |   |   |   |   |   Tryglicerides > 0.042478
|   |   |   |   |   |   |   |   |   |   |   |   |   |   |   |   |   |   Age <= 0.452341: '(2.333333-inf)' (161.75/3.0)
|   |   |   |   |   |   |   |   |   |   |   |   |   |   |   |   |   |   Age > 0.452341
|   |   |   |   |   |   |   |   |   |   |   |   |   |   |   |   |   |   |   Age <= 0.465148: '(1.666667-2.333333]' (7.92/1.0)
|   |   |   |   |   |   |   |   |   |   |   |   |   |   |   |   |   |   |   Age > 0.465148: '(2.333333-inf)' (28.1/1.97)
|   |   |   |   |   |   |   |   |   |   |   |   |   |   |   |   Platelets > 0.371775: '(1.666667-2.333333]' (7.9)
|   |   |   |   |   |   |   |   |   |   |   |   |   |   Edema = Y: '(2.333333-inf)' (0.0)
|   |   |   |   |   |   |   |   |   |   |   |   |   |   Edema = S: '(1.666667-2.333333]' (5.92)
|   |   |   |   |   |   |   |   |   |   |   |   |   N_Days > 0.543963: '(1.666667-2.333333]' (21.74/1.01)
|   |   |   |   |   |   |   |   |   |   |   |   Tryglicerides > 0.138053
|   |   |   |   |   |   |   |   |   |   |   |   |   Copper <= 0.160357
|   |   |   |   |   |   |   |   |   |   |   |   |   |   Age <= 0.442106
|   |   |   |   |   |   |   |   |   |   |   |   |   |   |   Platelets <= 0.37481
|   |   |   |   |   |   |   |   |   |   |   |   |   |   |   |   Platelets <= 0.15478: '(1.666667-2.333333]' (38.52/1.0)
|   |   |   |   |   |   |   |   |   |   |   |   |   |   |   |   Platelets > 0.15478
|   |   |   |   |   |   |   |   |   |   |   |   |   |   |   |   |   Prothrombin <= 0.155556: '(-inf-1.666667]' (6.03/1.99)
|   |   |   |   |   |   |   |   |   |   |   |   |   |   |   |   |   Prothrombin > 0.155556
|   |   |   |   |   |   |   |   |   |   |   |   |   |   |   |   |   |   Hepatomegaly = Y
|   |   |   |   |   |   |   |   |   |   |   |   |   |   |   |   |   |   |   Age <= 0.14219: '(1.666667-2.333333]' (4.94)
|   |   |   |   |   |   |   |   |   |   |   |   |   |   |   |   |   |   |   Age > 0.14219: '(2.333333-inf)' (41.14/2.96)
|   |   |   |   |   |   |   |   |   |   |   |   |   |   |   |   |   |   Hepatomegaly = N
|   |   |   |   |   |   |   |   |   |   |   |   |   |   |   |   |   |   |   Platelets <= 0.194234: '(2.333333-inf)' (13.06)
|   |   |   |   |   |   |   |   |   |   |   |   |   |   |   |   |   |   |   Platelets > 0.194234
|   |   |   |   |   |   |   |   |   |   |   |   |   |   |   |   |   |   |   |   Edema = N
|   |   |   |   |   |   |   |   |   |   |   |   |   |   |   |   |   |   |   |   |   Age <= 0.427252
|   |   |   |   |   |   |   |   |   |   |   |   |   |   |   |   |   |   |   |   |   |   Platelets <= 0.350531
|   |   |   |   |   |   |   |   |   |   |   |   |   |   |   |   |   |   |   |   |   |   |   Prothrombin <= 0.166667: '(1.666667-2.333333]' (12.83)
|   |   |   |   |   |   |   |   |   |   |   |   |   |   |   |   |   |   |   |   |   |   |   Prothrombin > 0.166667
|   |   |   |   |   |   |   |   |   |   |   |   |   |   |   |   |   |   |   |   |   |   |   |   Spiders = N
|   |   |   |   |   |   |   |   |   |   |   |   |   |   |   |   |   |   |   |   |   |   |   |   |   Sex = F
|   |   |   |   |   |   |   |   |   |   |   |   |   |   |   |   |   |   |   |   |   |   |   |   |   |   Age <= 0.344111: '(1.666667-2.333333]' (42.57/7.03)
|   |   |   |   |   |   |   |   |   |   |   |   |   |   |   |   |   |   |   |   |   |   |   |   |   |   Age > 0.344111: '(-inf-1.666667]' (4.01/0.99)
|   |   |   |   |   |   |   |   |   |   |   |   |   |   |   |   |   |   |   |   |   |   |   |   |   Sex = M: '(2.333333-inf)' (4.02)
|   |   |   |   |   |   |   |   |   |   |   |   |   |   |   |   |   |   |   |   |   |   |   |   Spiders = Y
|   |   |   |   |   |   |   |   |   |   |   |   |   |   |   |   |   |   |   |   |   |   |   |   |   Bilirubin <= 0.093863
|   |   |   |   |   |   |   |   |   |   |   |   |   |   |   |   |   |   |   |   |   |   |   |   |   |   Age <= 0.394132
|   |   |   |   |   |   |   |   |   |   |   |   |   |   |   |   |   |   |   |   |   |   |   |   |   |   |   Ascites = N: '(-inf-1.666667]' (2.02)
|   |   |   |   |   |   |   |   |   |   |   |   |   |   |   |   |   |   |   |   |   |   |   |   |   |   |   Ascites = Y: '(1.666667-2.333333]' (11.89/2.02)
|   |   |   |   |   |   |   |   |   |   |   |   |   |   |   |   |   |   |   |   |   |   |   |   |   |   Age > 0.394132: '(2.333333-inf)' (2.01)
|   |   |   |   |   |   |   |   |   |   |   |   |   |   |   |   |   |   |   |   |   |   |   |   |   Bilirubin > 0.093863: '(2.333333-inf)' (9.05/1.01)
|   |   |   |   |   |   |   |   |   |   |   |   |   |   |   |   |   |   |   |   |   |   Platelets > 0.350531: '(2.333333-inf)' (4.02)
|   |   |   |   |   |   |   |   |   |   |   |   |   |   |   |   |   |   |   |   |   Age > 0.427252: '(2.333333-inf)' (11.06/1.01)
|   |   |   |   |   |   |   |   |   |   |   |   |   |   |   |   |   |   |   |   Edema = Y: '(1.666667-2.333333]' (0.0)
|   |   |   |   |   |   |   |   |   |   |   |   |   |   |   |   |   |   |   |   Edema = S: '(2.333333-inf)' (3.01)
|   |   |   |   |   |   |   |   |   |   |   |   |   |   |   Platelets > 0.37481: '(1.666667-2.333333]' (54.3)
|   |   |   |   |   |   |   |   |   |   |   |   |   |   Age > 0.442106
|   |   |   |   |   |   |   |   |   |   |   |   |   |   |   Albumin <= 0.481343: '(1.666667-2.333333]' (204.44/4.03)
|   |   |   |   |   |   |   |   |   |   |   |   |   |   |   Albumin > 0.481343
|   |   |   |   |   |   |   |   |   |   |   |   |   |   |   |   Platelets <= 0.291351
|   |   |   |   |   |   |   |   |   |   |   |   |   |   |   |   |   Platelets <= 0.250379: '(2.333333-inf)' (5.01/0.99)
|   |   |   |   |   |   |   |   |   |   |   |   |   |   |   |   |   Platelets > 0.250379: '(1.666667-2.333333]' (23.71/1.0)
|   |   |   |   |   |   |   |   |   |   |   |   |   |   |   |   Platelets > 0.291351
|   |   |   |   |   |   |   |   |   |   |   |   |   |   |   |   |   N_Days <= 0.201725: '(2.333333-inf)' (4.02)
|   |   |   |   |   |   |   |   |   |   |   |   |   |   |   |   |   N_Days > 0.201725: '(-inf-1.666667]' (4.01/0.99)
|   |   |   |   |   |   |   |   |   |   |   |   |   Copper > 0.160357
|   |   |   |   |   |   |   |   |   |   |   |   |   |   Platelets <= 0.31563: '(2.333333-inf)' (43.16/12.02)
|   |   |   |   |   |   |   |   |   |   |   |   |   |   Platelets > 0.31563: '(1.666667-2.333333]' (9.89/1.0)
|   |   |   |   |   |   |   |   |   |   |   Platelets > 0.408194
|   |   |   |   |   |   |   |   |   |   |   |   Cholesterol <= 0.055589: '(1.666667-2.333333]' (34.55)
|   |   |   |   |   |   |   |   |   |   |   |   Cholesterol > 0.055589
|   |   |   |   |   |   |   |   |   |   |   |   |   Ascites = N
|   |   |   |   |   |   |   |   |   |   |   |   |   |   Age <= 0.342431
|   |   |   |   |   |   |   |   |   |   |   |   |   |   |   Edema = N
|   |   |   |   |   |   |   |   |   |   |   |   |   |   |   |   Hepatomegaly = Y
|   |   |   |   |   |   |   |   |   |   |   |   |   |   |   |   |   Age <= 0.191476: '(2.333333-inf)' (2.01)
|   |   |   |   |   |   |   |   |   |   |   |   |   |   |   |   |   Age > 0.191476
|   |   |   |   |   |   |   |   |   |   |   |   |   |   |   |   |   |   Bilirubin <= 0.043321: '(1.666667-2.333333]' (2.98/1.01)
|   |   |   |   |   |   |   |   |   |   |   |   |   |   |   |   |   |   Bilirubin > 0.043321: '(-inf-1.666667]' (2.02)
|   |   |   |   |   |   |   |   |   |   |   |   |   |   |   |   Hepatomegaly = N: '(-inf-1.666667]' (102.82/0.99)
|   |   |   |   |   |   |   |   |   |   |   |   |   |   |   Edema = Y: '(1.666667-2.333333]' (4.94)
|   |   |   |   |   |   |   |   |   |   |   |   |   |   |   Edema = S: '(1.666667-2.333333]' (3.95)
|   |   |   |   |   |   |   |   |   |   |   |   |   |   Age > 0.342431
|   |   |   |   |   |   |   |   |   |   |   |   |   |   |   Tryglicerides <= 0.148673: '(2.333333-inf)' (2.01)
|   |   |   |   |   |   |   |   |   |   |   |   |   |   |   Tryglicerides > 0.148673: '(1.666667-2.333333]' (10.86)
|   |   |   |   |   |   |   |   |   |   |   |   |   Ascites = Y
|   |   |   |   |   |   |   |   |   |   |   |   |   |   Age <= 0.205543: '(1.666667-2.333333]' (7.9)
|   |   |   |   |   |   |   |   |   |   |   |   |   |   Age > 0.205543
|   |   |   |   |   |   |   |   |   |   |   |   |   |   |   N_Days <= 0.431005: '(2.333333-inf)' (12.06)
|   |   |   |   |   |   |   |   |   |   |   |   |   |   |   N_Days > 0.431005: '(-inf-1.666667]' (2.02)
|   |   |   |   |   |   |   |   |   |   Age > 0.507663
|   |   |   |   |   |   |   |   |   |   |   Platelets <= 0.257967
|   |   |   |   |   |   |   |   |   |   |   |   Platelets <= 0.227618
|   |   |   |   |   |   |   |   |   |   |   |   |   Tryglicerides <= 0.235398
|   |   |   |   |   |   |   |   |   |   |   |   |   |   Age <= 0.809626
|   |   |   |   |   |   |   |   |   |   |   |   |   |   |   Platelets <= 0.192716
|   |   |   |   |   |   |   |   |   |   |   |   |   |   |   |   Drug = Placebo: '(2.333333-inf)' (161.75/0.99)
|   |   |   |   |   |   |   |   |   |   |   |   |   |   |   |   Drug = D-penicillamine
|   |   |   |   |   |   |   |   |   |   |   |   |   |   |   |   |   Age <= 0.569179: '(2.333333-inf)' (14.07)
|   |   |   |   |   |   |   |   |   |   |   |   |   |   |   |   |   Age > 0.569179
|   |   |   |   |   |   |   |   |   |   |   |   |   |   |   |   |   |   Age <= 0.660246: '(1.666667-2.333333]' (3.95)
|   |   |   |   |   |   |   |   |   |   |   |   |   |   |   |   |   |   Age > 0.660246: '(2.333333-inf)' (4.02/1.01)
|   |   |   |   |   |   |   |   |   |   |   |   |   |   |   Platelets > 0.192716
|   |   |   |   |   |   |   |   |   |   |   |   |   |   |   |   Albumin <= 0.481343: '(-inf-1.666667]' (3.99/1.97)
|   |   |   |   |   |   |   |   |   |   |   |   |   |   |   |   Albumin > 0.481343: '(2.333333-inf)' (7.04/1.01)
|   |   |   |   |   |   |   |   |   |   |   |   |   |   Age > 0.809626
|   |   |   |   |   |   |   |   |   |   |   |   |   |   |   Status = C
|   |   |   |   |   |   |   |   |   |   |   |   |   |   |   |   Cholesterol <= 0.122054: '(1.666667-2.333333]' (4.94)
|   |   |   |   |   |   |   |   |   |   |   |   |   |   |   |   Cholesterol > 0.122054: '(2.333333-inf)' (2.01)
|   |   |   |   |   |   |   |   |   |   |   |   |   |   |   Status = D: '(1.666667-2.333333]' (3.95)
|   |   |   |   |   |   |   |   |   |   |   |   |   |   |   Status = CL: '(1.666667-2.333333]' (0.0)
|   |   |   |   |   |   |   |   |   |   |   |   |   Tryglicerides > 0.235398
|   |   |   |   |   |   |   |   |   |   |   |   |   |   Sex = F: '(1.666667-2.333333]' (29.64/1.01)
|   |   |   |   |   |   |   |   |   |   |   |   |   |   Sex = M: '(2.333333-inf)' (2.01)
|   |   |   |   |   |   |   |   |   |   |   |   Platelets > 0.227618
|   |   |   |   |   |   |   |   |   |   |   |   |   Ascites = N
|   |   |   |   |   |   |   |   |   |   |   |   |   |   Prothrombin <= 0.166667
|   |   |   |   |   |   |   |   |   |   |   |   |   |   |   Hepatomegaly = Y: '(2.333333-inf)' (2.01)
|   |   |   |   |   |   |   |   |   |   |   |   |   |   |   Hepatomegaly = N: '(1.666667-2.333333]' (2.98/1.01)
|   |   |   |   |   |   |   |   |   |   |   |   |   |   Prothrombin > 0.166667
|   |   |   |   |   |   |   |   |   |   |   |   |   |   |   Platelets <= 0.251897: '(-inf-1.666667]' (75.6/1.99)
|   |   |   |   |   |   |   |   |   |   |   |   |   |   |   Platelets > 0.251897
|   |   |   |   |   |   |   |   |   |   |   |   |   |   |   |   Status = C
|   |   |   |   |   |   |   |   |   |   |   |   |   |   |   |   |   Tryglicerides <= 0.148673: '(1.666667-2.333333]' (3.99/2.01)
|   |   |   |   |   |   |   |   |   |   |   |   |   |   |   |   |   Tryglicerides > 0.148673: '(-inf-1.666667]' (12.1/1.0)
|   |   |   |   |   |   |   |   |   |   |   |   |   |   |   |   Status = D: '(2.333333-inf)' (7.04/1.01)
|   |   |   |   |   |   |   |   |   |   |   |   |   |   |   |   Status = CL: '(-inf-1.666667]' (0.0)
|   |   |   |   |   |   |   |   |   |   |   |   |   Ascites = Y
|   |   |   |   |   |   |   |   |   |   |   |   |   |   Hepatomegaly = Y: '(2.333333-inf)' (5.01/0.99)
|   |   |   |   |   |   |   |   |   |   |   |   |   |   Hepatomegaly = N: '(1.666667-2.333333]' (45.41)
|   |   |   |   |   |   |   |   |   |   |   Platelets > 0.257967
|   |   |   |   |   |   |   |   |   |   |   |   Prothrombin <= 0.177778
|   |   |   |   |   |   |   |   |   |   |   |   |   Sex = F: '(2.333333-inf)' (362.72/9.05)
|   |   |   |   |   |   |   |   |   |   |   |   |   Sex = M
|   |   |   |   |   |   |   |   |   |   |   |   |   |   Platelets <= 0.336874: '(1.666667-2.333333]' (2.96)
|   |   |   |   |   |   |   |   |   |   |   |   |   |   Platelets > 0.336874: '(2.333333-inf)' (4.02)
|   |   |   |   |   |   |   |   |   |   |   |   Prothrombin > 0.177778
|   |   |   |   |   |   |   |   |   |   |   |   |   Prothrombin <= 0.192415: '(1.666667-2.333333]' (15.81/1.0)
|   |   |   |   |   |   |   |   |   |   |   |   |   Prothrombin > 0.192415
|   |   |   |   |   |   |   |   |   |   |   |   |   |   Platelets <= 0.368741: '(2.333333-inf)' (119.55/0.99)
|   |   |   |   |   |   |   |   |   |   |   |   |   |   Platelets > 0.368741
|   |   |   |   |   |   |   |   |   |   |   |   |   |   |   Albumin <= 0.529851
|   |   |   |   |   |   |   |   |   |   |   |   |   |   |   |   Age <= 0.53291: '(2.333333-inf)' (3.01)
|   |   |   |   |   |   |   |   |   |   |   |   |   |   |   |   Age > 0.53291: '(1.666667-2.333333]' (14.81)
|   |   |   |   |   |   |   |   |   |   |   |   |   |   |   Albumin > 0.529851: '(2.333333-inf)' (10.05)
|   |   |   |   |   |   |   |   |   N_Days > 0.949727: '(-inf-1.666667]' (28.23)
|   |   |   Albumin > 0.58209
|   |   |   |   Age <= 0.809626
|   |   |   |   |   Tryglicerides <= 0.332743
|   |   |   |   |   |   SGOT <= 0.478417
|   |   |   |   |   |   |   Platelets <= 0.552352
|   |   |   |   |   |   |   |   Copper <= 0.255137
|   |   |   |   |   |   |   |   |   Alk_Phos <= 0.134896
|   |   |   |   |   |   |   |   |   |   N_Days <= 0.22886
|   |   |   |   |   |   |   |   |   |   |   Edema = N
|   |   |   |   |   |   |   |   |   |   |   |   Albumin <= 0.716418
|   |   |   |   |   |   |   |   |   |   |   |   |   Copper <= 0.148973
|   |   |   |   |   |   |   |   |   |   |   |   |   |   Drug = Placebo
|   |   |   |   |   |   |   |   |   |   |   |   |   |   |   Bilirubin <= 0.090253
|   |   |   |   |   |   |   |   |   |   |   |   |   |   |   |   Spiders = N
|   |   |   |   |   |   |   |   |   |   |   |   |   |   |   |   |   Alk_Phos <= 0.030648: '(2.333333-inf)' (4.02)
|   |   |   |   |   |   |   |   |   |   |   |   |   |   |   |   |   Alk_Phos > 0.030648: '(-inf-1.666667]' (2.02)
|   |   |   |   |   |   |   |   |   |   |   |   |   |   |   |   Spiders = Y: '(2.333333-inf)' (7.02/0.99)
|   |   |   |   |   |   |   |   |   |   |   |   |   |   |   Bilirubin > 0.090253
|   |   |   |   |   |   |   |   |   |   |   |   |   |   |   |   Platelets <= 0.264036: '(-inf-1.666667]' (4.03)
|   |   |   |   |   |   |   |   |   |   |   |   |   |   |   |   Platelets > 0.264036: '(1.666667-2.333333]' (3.97/1.01)
|   |   |   |   |   |   |   |   |   |   |   |   |   |   Drug = D-penicillamine: '(1.666667-2.333333]' (11.85)
|   |   |   |   |   |   |   |   |   |   |   |   |   Copper > 0.148973
|   |   |   |   |   |   |   |   |   |   |   |   |   |   Prothrombin <= 0.1
|   |   |   |   |   |   |   |   |   |   |   |   |   |   |   Prothrombin <= 0.033333: '(-inf-1.666667]' (8.07)
|   |   |   |   |   |   |   |   |   |   |   |   |   |   |   Prothrombin > 0.033333
|   |   |   |   |   |   |   |   |   |   |   |   |   |   |   |   N_Days <= 0.226756
|   |   |   |   |   |   |   |   |   |   |   |   |   |   |   |   |   Platelets <= 0.311077: '(1.666667-2.333333]' (26.69/2.01)
|   |   |   |   |   |   |   |   |   |   |   |   |   |   |   |   |   Platelets > 0.311077
|   |   |   |   |   |   |   |   |   |   |   |   |   |   |   |   |   |   Status = C: '(-inf-1.666667]' (6.04/2.01)
|   |   |   |   |   |   |   |   |   |   |   |   |   |   |   |   |   |   Status = D
|   |   |   |   |   |   |   |   |   |   |   |   |   |   |   |   |   |   |   Albumin <= 0.701493: '(1.666667-2.333333]' (11.87/1.01)
|   |   |   |   |   |   |   |   |   |   |   |   |   |   |   |   |   |   |   Albumin > 0.701493: '(-inf-1.666667]' (5.0/1.97)
|   |   |   |   |   |   |   |   |   |   |   |   |   |   |   |   |   |   Status = CL: '(1.666667-2.333333]' (0.99)
|   |   |   |   |   |   |   |   |   |   |   |   |   |   |   |   N_Days > 0.226756: '(-inf-1.666667]' (5.04)
|   |   |   |   |   |   |   |   |   |   |   |   |   |   Prothrombin > 0.1
|   |   |   |   |   |   |   |   |   |   |   |   |   |   |   Platelets <= 0.286798
|   |   |   |   |   |   |   |   |   |   |   |   |   |   |   |   Platelets <= 0.282246
|   |   |   |   |   |   |   |   |   |   |   |   |   |   |   |   |   Platelets <= 0.218513
|   |   |   |   |   |   |   |   |   |   |   |   |   |   |   |   |   |   Platelets <= 0.201821: '(1.666667-2.333333]' (153.04/1.01)
|   |   |   |   |   |   |   |   |   |   |   |   |   |   |   |   |   |   Platelets > 0.201821: '(-inf-1.666667]' (4.03)
|   |   |   |   |   |   |   |   |   |   |   |   |   |   |   |   |   Platelets > 0.218513: '(1.666667-2.333333]' (82.95/1.01)
|   |   |   |   |   |   |   |   |   |   |   |   |   |   |   |   Platelets > 0.282246: '(-inf-1.666667]' (10.06/0.99)
|   |   |   |   |   |   |   |   |   |   |   |   |   |   |   Platelets > 0.286798
|   |   |   |   |   |   |   |   |   |   |   |   |   |   |   |   Platelets <= 0.441578: '(1.666667-2.333333]' (325.96/8.07)
|   |   |   |   |   |   |   |   |   |   |   |   |   |   |   |   Platelets > 0.441578
|   |   |   |   |   |   |   |   |   |   |   |   |   |   |   |   |   Alk_Phos <= 0.064612: '(-inf-1.666667]' (6.05)
|   |   |   |   |   |   |   |   |   |   |   |   |   |   |   |   |   Alk_Phos > 0.064612: '(1.666667-2.333333]' (14.81)
|   |   |   |   |   |   |   |   |   |   |   |   Albumin > 0.716418
|   |   |   |   |   |   |   |   |   |   |   |   |   Bilirubin <= 0.021661: '(-inf-1.666667]' (2.02)
|   |   |   |   |   |   |   |   |   |   |   |   |   Bilirubin > 0.021661
|   |   |   |   |   |   |   |   |   |   |   |   |   |   Albumin <= 0.776119: '(2.333333-inf)' (24.1/0.99)
|   |   |   |   |   |   |   |   |   |   |   |   |   |   Albumin > 0.776119: '(1.666667-2.333333]' (9.87)
|   |   |   |   |   |   |   |   |   |   |   Edema = Y: '(2.333333-inf)' (1.0)
|   |   |   |   |   |   |   |   |   |   |   Edema = S
|   |   |   |   |   |   |   |   |   |   |   |   N_Days <= 0.153765
|   |   |   |   |   |   |   |   |   |   |   |   |   Hepatomegaly = Y
|   |   |   |   |   |   |   |   |   |   |   |   |   |   Drug = Placebo: '(-inf-1.666667]' (5.02/0.99)
|   |   |   |   |   |   |   |   |   |   |   |   |   |   Drug = D-penicillamine: '(2.333333-inf)' (3.01)
|   |   |   |   |   |   |   |   |   |   |   |   |   Hepatomegaly = N
|   |   |   |   |   |   |   |   |   |   |   |   |   |   Platelets <= 0.494689
|   |   |   |   |   |   |   |   |   |   |   |   |   |   |   Prothrombin <= 0.011111: '(1.666667-2.333333]' (3.95)
|   |   |   |   |   |   |   |   |   |   |   |   |   |   |   Prothrombin > 0.011111: '(2.333333-inf)' (27.08/2.96)
|   |   |   |   |   |   |   |   |   |   |   |   |   |   Platelets > 0.494689: '(1.666667-2.333333]' (4.94)
|   |   |   |   |   |   |   |   |   |   |   |   N_Days > 0.153765: '(-inf-1.666667]' (13.11)
|   |   |   |   |   |   |   |   |   |   N_Days > 0.22886
|   |   |   |   |   |   |   |   |   |   |   Prothrombin <= 0.2
|   |   |   |   |   |   |   |   |   |   |   |   Albumin <= 0.671642
|   |   |   |   |   |   |   |   |   |   |   |   |   Platelets <= 0.546282
|   |   |   |   |   |   |   |   |   |   |   |   |   |   Platelets <= 0.496206
|   |   |   |   |   |   |   |   |   |   |   |   |   |   |   Albumin <= 0.652985
|   |   |   |   |   |   |   |   |   |   |   |   |   |   |   |   Platelets <= 0.132018
|   |   |   |   |   |   |   |   |   |   |   |   |   |   |   |   |   Hepatomegaly = Y
|   |   |   |   |   |   |   |   |   |   |   |   |   |   |   |   |   |   Alk_Phos <= 0.120088: '(2.333333-inf)' (38.18)
|   |   |   |   |   |   |   |   |   |   |   |   |   |   |   |   |   |   Alk_Phos > 0.120088: '(-inf-1.666667]' (2.02)
|   |   |   |   |   |   |   |   |   |   |   |   |   |   |   |   |   Hepatomegaly = N
|   |   |   |   |   |   |   |   |   |   |   |   |   |   |   |   |   |   Platelets <= 0.122914
|   |   |   |   |   |   |   |   |   |   |   |   |   |   |   |   |   |   |   Albumin <= 0.608209: '(1.666667-2.333333]' (11.89/2.02)
|   |   |   |   |   |   |   |   |   |   |   |   |   |   |   |   |   |   |   Albumin > 0.608209
|   |   |   |   |   |   |   |   |   |   |   |   |   |   |   |   |   |   |   |   Bilirubin <= 0.01083
|   |   |   |   |   |   |   |   |   |   |   |   |   |   |   |   |   |   |   |   |   N_Days <= 0.392722: '(2.333333-inf)' (2.01)
|   |   |   |   |   |   |   |   |   |   |   |   |   |   |   |   |   |   |   |   |   N_Days > 0.392722: '(-inf-1.666667]' (7.04/0.99)
|   |   |   |   |   |   |   |   |   |   |   |   |   |   |   |   |   |   |   |   Bilirubin > 0.01083: '(-inf-1.666667]' (52.43)
|   |   |   |   |   |   |   |   |   |   |   |   |   |   |   |   |   |   Platelets > 0.122914: '(1.666667-2.333333]' (13.82)
|   |   |   |   |   |   |   |   |   |   |   |   |   |   |   |   Platelets > 0.132018
|   |   |   |   |   |   |   |   |   |   |   |   |   |   |   |   |   Age <= 0.702236
|   |   |   |   |   |   |   |   |   |   |   |   |   |   |   |   |   |   Cholesterol <= 0.064048
|   |   |   |   |   |   |   |   |   |   |   |   |   |   |   |   |   |   |   Age <= 0.215935
|   |   |   |   |   |   |   |   |   |   |   |   |   |   |   |   |   |   |   |   Platelets <= 0.253414: '(1.666667-2.333333]' (6.91)
|   |   |   |   |   |   |   |   |   |   |   |   |   |   |   |   |   |   |   |   Platelets > 0.253414: '(-inf-1.666667]' (14.12)
|   |   |   |   |   |   |   |   |   |   |   |   |   |   |   |   |   |   |   Age > 0.215935
|   |   |   |   |   |   |   |   |   |   |   |   |   |   |   |   |   |   |   |   Age <= 0.596368: '(1.666667-2.333333]' (151.24/9.07)
|   |   |   |   |   |   |   |   |   |   |   |   |   |   |   |   |   |   |   |   Age > 0.596368: '(-inf-1.666667]' (10.04/1.97)
|   |   |   |   |   |   |   |   |   |   |   |   |   |   |   |   |   |   Cholesterol > 0.064048
|   |   |   |   |   |   |   |   |   |   |   |   |   |   |   |   |   |   |   Platelets <= 0.207891
|   |   |   |   |   |   |   |   |   |   |   |   |   |   |   |   |   |   |   |   Edema = N
|   |   |   |   |   |   |   |   |   |   |   |   |   |   |   |   |   |   |   |   |   Tryglicerides <= 0.053097: '(-inf-1.666667]' (7.04/0.99)
|   |   |   |   |   |   |   |   |   |   |   |   |   |   |   |   |   |   |   |   |   Tryglicerides > 0.053097
|   |   |   |   |   |   |   |   |   |   |   |   |   |   |   |   |   |   |   |   |   |   Prothrombin <= 0.155556
|   |   |   |   |   |   |   |   |   |   |   |   |   |   |   |   |   |   |   |   |   |   |   Prothrombin <= 0.1: '(1.666667-2.333333]' (22.73/1.01)
|   |   |   |   |   |   |   |   |   |   |   |   |   |   |   |   |   |   |   |   |   |   |   Prothrombin > 0.1
|   |   |   |   |   |   |   |   |   |   |   |   |   |   |   |   |   |   |   |   |   |   |   |   Hepatomegaly = Y: '(1.666667-2.333333]' (3.97/1.01)
|   |   |   |   |   |   |   |   |   |   |   |   |   |   |   |   |   |   |   |   |   |   |   |   Hepatomegaly = N: '(-inf-1.666667]' (16.13)
|   |   |   |   |   |   |   |   |   |   |   |   |   |   |   |   |   |   |   |   |   |   Prothrombin > 0.155556: '(1.666667-2.333333]' (94.83/3.02)
|   |   |   |   |   |   |   |   |   |   |   |   |   |   |   |   |   |   |   |   Edema = Y: '(1.666667-2.333333]' (0.0)
|   |   |   |   |   |   |   |   |   |   |   |   |   |   |   |   |   |   |   |   Edema = S: '(2.333333-inf)' (2.01)
|   |   |   |   |   |   |   |   |   |   |   |   |   |   |   |   |   |   |   Platelets > 0.207891
|   |   |   |   |   |   |   |   |   |   |   |   |   |   |   |   |   |   |   |   Bilirubin <= 0.018051
|   |   |   |   |   |   |   |   |   |   |   |   |   |   |   |   |   |   |   |   |   Albumin <= 0.589552
|   |   |   |   |   |   |   |   |   |   |   |   |   |   |   |   |   |   |   |   |   |   N_Days <= 0.376735: '(-inf-1.666667]' (3.02)
|   |   |   |   |   |   |   |   |   |   |   |   |   |   |   |   |   |   |   |   |   |   N_Days > 0.376735: '(1.666667-2.333333]' (34.62/3.02)
|   |   |   |   |   |   |   |   |   |   |   |   |   |   |   |   |   |   |   |   |   Albumin > 0.589552
|   |   |   |   |   |   |   |   |   |   |   |   |   |   |   |   |   |   |   |   |   |   Prothrombin <= 0.166667
|   |   |   |   |   |   |   |   |   |   |   |   |   |   |   |   |   |   |   |   |   |   |   Platelets <= 0.257967
|   |   |   |   |   |   |   |   |   |   |   |   |   |   |   |   |   |   |   |   |   |   |   |   Ascites = N
|   |   |   |   |   |   |   |   |   |   |   |   |   |   |   |   |   |   |   |   |   |   |   |   |   Platelets <= 0.23824: '(-inf-1.666667]' (4.01/1.99)
|   |   |   |   |   |   |   |   |   |   |   |   |   |   |   |   |   |   |   |   |   |   |   |   |   Platelets > 0.23824: '(1.666667-2.333333]' (20.73)
|   |   |   |   |   |   |   |   |   |   |   |   |   |   |   |   |   |   |   |   |   |   |   |   Ascites = Y: '(-inf-1.666667]' (7.06)
|   |   |   |   |   |   |   |   |   |   |   |   |   |   |   |   |   |   |   |   |   |   |   Platelets > 0.257967
|   |   |   |   |   |   |   |   |   |   |   |   |   |   |   |   |   |   |   |   |   |   |   |   SGOT <= 0.353446
|   |   |   |   |   |   |   |   |   |   |   |   |   |   |   |   |   |   |   |   |   |   |   |   |   Platelets <= 0.350531: '(-inf-1.666667]' (214.67/6.96)
|   |   |   |   |   |   |   |   |   |   |   |   |   |   |   |   |   |   |   |   |   |   |   |   |   Platelets > 0.350531
|   |   |   |   |   |   |   |   |   |   |   |   |   |   |   |   |   |   |   |   |   |   |   |   |   |   Bilirubin <= 0.01083: '(1.666667-2.333333]' (12.89/3.02)
|   |   |   |   |   |   |   |   |   |   |   |   |   |   |   |   |   |   |   |   |   |   |   |   |   |   Bilirubin > 0.01083
|   |   |   |   |   |   |   |   |   |   |   |   |   |   |   |   |   |   |   |   |   |   |   |   |   |   |   Copper <= 0.109589
|   |   |   |   |   |   |   |   |   |   |   |   |   |   |   |   |   |   |   |   |   |   |   |   |   |   |   |   Albumin <= 0.615672: '(-inf-1.666667]' (51.38/2.98)
|   |   |   |   |   |   |   |   |   |   |   |   |   |   |   |   |   |   |   |   |   |   |   |   |   |   |   |   Albumin > 0.615672: '(1.666667-2.333333]' (4.94)
|   |   |   |   |   |   |   |   |   |   |   |   |   |   |   |   |   |   |   |   |   |   |   |   |   |   |   Copper > 0.109589: '(-inf-1.666667]' (43.31/1.97)
|   |   |   |   |   |   |   |   |   |   |   |   |   |   |   |   |   |   |   |   |   |   |   |   SGOT > 0.353446
|   |   |   |   |   |   |   |   |   |   |   |   |   |   |   |   |   |   |   |   |   |   |   |   |   Platelets <= 0.279211: '(-inf-1.666667]' (10.08)
|   |   |   |   |   |   |   |   |   |   |   |   |   |   |   |   |   |   |   |   |   |   |   |   |   Platelets > 0.279211: '(1.666667-2.333333]' (25.69/1.01)
|   |   |   |   |   |   |   |   |   |   |   |   |   |   |   |   |   |   |   |   |   |   Prothrombin > 0.166667
|   |   |   |   |   |   |   |   |   |   |   |   |   |   |   |   |   |   |   |   |   |   |   Age <= 0.406414: '(1.666667-2.333333]' (9.87)
|   |   |   |   |   |   |   |   |   |   |   |   |   |   |   |   |   |   |   |   |   |   |   Age > 0.406414: '(-inf-1.666667]' (26.17/2.98)
|   |   |   |   |   |   |   |   |   |   |   |   |   |   |   |   |   |   |   |   Bilirubin > 0.018051
|   |   |   |   |   |   |   |   |   |   |   |   |   |   |   |   |   |   |   |   |   SGOT <= 0.18705
|   |   |   |   |   |   |   |   |   |   |   |   |   |   |   |   |   |   |   |   |   |   Cholesterol <= 0.163142
|   |   |   |   |   |   |   |   |   |   |   |   |   |   |   |   |   |   |   |   |   |   |   Bilirubin <= 0.021661: '(2.333333-inf)' (7.04/1.01)
|   |   |   |   |   |   |   |   |   |   |   |   |   |   |   |   |   |   |   |   |   |   |   Bilirubin > 0.021661
|   |   |   |   |   |   |   |   |   |   |   |   |   |   |   |   |   |   |   |   |   |   |   |   Platelets <= 0.253414: '(2.333333-inf)' (6.01/2.0)
|   |   |   |   |   |   |   |   |   |   |   |   |   |   |   |   |   |   |   |   |   |   |   |   Platelets > 0.253414
|   |   |   |   |   |   |   |   |   |   |   |   |   |   |   |   |   |   |   |   |   |   |   |   |   Albumin <= 0.608209
|   |   |   |   |   |   |   |   |   |   |   |   |   |   |   |   |   |   |   |   |   |   |   |   |   |   Prothrombin <= 0.133333: '(1.666667-2.333333]' (22.71)
|   |   |   |   |   |   |   |   |   |   |   |   |   |   |   |   |   |   |   |   |   |   |   |   |   |   Prothrombin > 0.133333: '(-inf-1.666667]' (4.03/1.0)
|   |   |   |   |   |   |   |   |   |   |   |   |   |   |   |   |   |   |   |   |   |   |   |   |   Albumin > 0.608209: '(1.666667-2.333333]' (99.73/1.01)
|   |   |   |   |   |   |   |   |   |   |   |   |   |   |   |   |   |   |   |   |   |   Cholesterol > 0.163142
|   |   |   |   |   |   |   |   |   |   |   |   |   |   |   |   |   |   |   |   |   |   |   N_Days <= 0.277451: '(2.333333-inf)' (17.08/1.01)
|   |   |   |   |   |   |   |   |   |   |   |   |   |   |   |   |   |   |   |   |   |   |   N_Days > 0.277451: '(-inf-1.666667]' (3.99/1.97)
|   |   |   |   |   |   |   |   |   |   |   |   |   |   |   |   |   |   |   |   |   SGOT > 0.18705
|   |   |   |   |   |   |   |   |   |   |   |   |   |   |   |   |   |   |   |   |   |   N_Days <= 0.23475
|   |   |   |   |   |   |   |   |   |   |   |   |   |   |   |   |   |   |   |   |   |   |   N_Days <= 0.233067: '(-inf-1.666667]' (3.02)
|   |   |   |   |   |   |   |   |   |   |   |   |   |   |   |   |   |   |   |   |   |   |   N_Days > 0.233067
|   |   |   |   |   |   |   |   |   |   |   |   |   |   |   |   |   |   |   |   |   |   |   |   Drug = Placebo
|   |   |   |   |   |   |   |   |   |   |   |   |   |   |   |   |   |   |   |   |   |   |   |   |   Age <= 0.493596: '(1.666667-2.333333]' (74.04)
|   |   |   |   |   |   |   |   |   |   |   |   |   |   |   |   |   |   |   |   |   |   |   |   |   Age > 0.493596: '(-inf-1.666667]' (5.02/0.99)
|   |   |   |   |   |   |   |   |   |   |   |   |   |   |   |   |   |   |   |   |   |   |   |   Drug = D-penicillamine
|   |   |   |   |   |   |   |   |   |   |   |   |   |   |   |   |   |   |   |   |   |   |   |   |   Platelets <= 0.264036: '(-inf-1.666667]' (4.01/0.99)
|   |   |   |   |   |   |   |   |   |   |   |   |   |   |   |   |   |   |   |   |   |   |   |   |   Platelets > 0.264036: '(1.666667-2.333333]' (2.98/1.01)
|   |   |   |   |   |   |   |   |   |   |   |   |   |   |   |   |   |   |   |   |   |   N_Days > 0.23475
|   |   |   |   |   |   |   |   |   |   |   |   |   |   |   |   |   |   |   |   |   |   |   Cholesterol <= 0.089426
|   |   |   |   |   |   |   |   |   |   |   |   |   |   |   |   |   |   |   |   |   |   |   |   Prothrombin <= 0.155556
|   |   |   |   |   |   |   |   |   |   |   |   |   |   |   |   |   |   |   |   |   |   |   |   |   Ascites = N: '(1.666667-2.333333]' (52.36/2.01)
|   |   |   |   |   |   |   |   |   |   |   |   |   |   |   |   |   |   |   |   |   |   |   |   |   Ascites = Y: '(-inf-1.666667]' (2.02)
|   |   |   |   |   |   |   |   |   |   |   |   |   |   |   |   |   |   |   |   |   |   |   |   Prothrombin > 0.155556
|   |   |   |   |   |   |   |   |   |   |   |   |   |   |   |   |   |   |   |   |   |   |   |   |   Prothrombin <= 0.166667: '(2.333333-inf)' (2.01)
|   |   |   |   |   |   |   |   |   |   |   |   |   |   |   |   |   |   |   |   |   |   |   |   |   Prothrombin > 0.166667: '(-inf-1.666667]' (4.03)
|   |   |   |   |   |   |   |   |   |   |   |   |   |   |   |   |   |   |   |   |   |   |   Cholesterol > 0.089426
|   |   |   |   |   |   |   |   |   |   |   |   |   |   |   |   |   |   |   |   |   |   |   |   Bilirubin <= 0.021661
|   |   |   |   |   |   |   |   |   |   |   |   |   |   |   |   |   |   |   |   |   |   |   |   |   Drug = Placebo
|   |   |   |   |   |   |   |   |   |   |   |   |   |   |   |   |   |   |   |   |   |   |   |   |   |   Age <= 0.623819: '(1.666667-2.333333]' (25.71/2.02)
|   |   |   |   |   |   |   |   |   |   |   |   |   |   |   |   |   |   |   |   |   |   |   |   |   |   Age > 0.623819: '(-inf-1.666667]' (3.0/0.99)
|   |   |   |   |   |   |   |   |   |   |   |   |   |   |   |   |   |   |   |   |   |   |   |   |   Drug = D-penicillamine: '(-inf-1.666667]' (3.02/1.0)
|   |   |   |   |   |   |   |   |   |   |   |   |   |   |   |   |   |   |   |   |   |   |   |   Bilirubin > 0.021661
|   |   |   |   |   |   |   |   |   |   |   |   |   |   |   |   |   |   |   |   |   |   |   |   |   Bilirubin <= 0.314079
|   |   |   |   |   |   |   |   |   |   |   |   |   |   |   |   |   |   |   |   |   |   |   |   |   |   Albumin <= 0.600746
|   |   |   |   |   |   |   |   |   |   |   |   |   |   |   |   |   |   |   |   |   |   |   |   |   |   |   N_Days <= 0.305217: '(2.333333-inf)' (15.06/2.0)
|   |   |   |   |   |   |   |   |   |   |   |   |   |   |   |   |   |   |   |   |   |   |   |   |   |   |   N_Days > 0.305217
|   |   |   |   |   |   |   |   |   |   |   |   |   |   |   |   |   |   |   |   |   |   |   |   |   |   |   |   Hepatomegaly = Y
|   |   |   |   |   |   |   |   |   |   |   |   |   |   |   |   |   |   |   |   |   |   |   |   |   |   |   |   |   Age <= 0.613899
|   |   |   |   |   |   |   |   |   |   |   |   |   |   |   |   |   |   |   |   |   |   |   |   |   |   |   |   |   |   N_Days <= 0.621371: '(1.666667-2.333333]' (5.92)
|   |   |   |   |   |   |   |   |   |   |   |   |   |   |   |   |   |   |   |   |   |   |   |   |   |   |   |   |   |   N_Days > 0.621371: '(2.333333-inf)' (3.0/0.99)
|   |   |   |   |   |   |   |   |   |   |   |   |   |   |   |   |   |   |   |   |   |   |   |   |   |   |   |   |   Age > 0.613899: '(-inf-1.666667]' (4.03)
|   |   |   |   |   |   |   |   |   |   |   |   |   |   |   |   |   |   |   |   |   |   |   |   |   |   |   |   Hepatomegaly = N
|   |   |   |   |   |   |   |   |   |   |   |   |   |   |   |   |   |   |   |   |   |   |   |   |   |   |   |   |   Drug = Placebo
|   |   |   |   |   |   |   |   |   |   |   |   |   |   |   |   |   |   |   |   |   |   |   |   |   |   |   |   |   |   Age <= 0.327: '(-inf-1.666667]' (6.05)
|   |   |   |   |   |   |   |   |   |   |   |   |   |   |   |   |   |   |   |   |   |   |   |   |   |   |   |   |   |   Age > 0.327
|   |   |   |   |   |   |   |   |   |   |   |   |   |   |   |   |   |   |   |   |   |   |   |   |   |   |   |   |   |   |   Age <= 0.483309: '(1.666667-2.333333]' (9.89/1.0)
|   |   |   |   |   |   |   |   |   |   |   |   |   |   |   |   |   |   |   |   |   |   |   |   |   |   |   |   |   |   |   Age > 0.483309: '(-inf-1.666667]' (2.02)
|   |   |   |   |   |   |   |   |   |   |   |   |   |   |   |   |   |   |   |   |   |   |   |   |   |   |   |   |   Drug = D-penicillamine: '(-inf-1.666667]' (13.11)
|   |   |   |   |   |   |   |   |   |   |   |   |   |   |   |   |   |   |   |   |   |   |   |   |   |   Albumin > 0.600746
|   |   |   |   |   |   |   |   |   |   |   |   |   |   |   |   |   |   |   |   |   |   |   |   |   |   |   Albumin <= 0.626866
|   |   |   |   |   |   |   |   |   |   |   |   |   |   |   |   |   |   |   |   |   |   |   |   |   |   |   |   Platelets <= 0.409712: '(-inf-1.666667]' (200.08/26.66)
|   |   |   |   |   |   |   |   |   |   |   |   |   |   |   |   |   |   |   |   |   |   |   |   |   |   |   |   Platelets > 0.409712
|   |   |   |   |   |   |   |   |   |   |   |   |   |   |   |   |   |   |   |   |   |   |   |   |   |   |   |   |   Platelets <= 0.424886: '(1.666667-2.333333]' (8.91/1.01)
|   |   |   |   |   |   |   |   |   |   |   |   |   |   |   |   |   |   |   |   |   |   |   |   |   |   |   |   |   Platelets > 0.424886: '(-inf-1.666667]' (8.07)
|   |   |   |   |   |   |   |   |   |   |   |   |   |   |   |   |   |   |   |   |   |   |   |   |   |   |   Albumin > 0.626866
|   |   |   |   |   |   |   |   |   |   |   |   |   |   |   |   |   |   |   |   |   |   |   |   |   |   |   |   Prothrombin <= 0.055556: '(-inf-1.666667]' (15.12)
|   |   |   |   |   |   |   |   |   |   |   |   |   |   |   |   |   |   |   |   |   |   |   |   |   |   |   |   Prothrombin > 0.055556
|   |   |   |   |   |   |   |   |   |   |   |   |   |   |   |   |   |   |   |   |   |   |   |   |   |   |   |   |   Prothrombin <= 0.088889: '(1.666667-2.333333]' (38.69/9.07)
|   |   |   |   |   |   |   |   |   |   |   |   |   |   |   |   |   |   |   |   |   |   |   |   |   |   |   |   |   Prothrombin > 0.088889
|   |   |   |   |   |   |   |   |   |   |   |   |   |   |   |   |   |   |   |   |   |   |   |   |   |   |   |   |   |   Platelets <= 0.235205: '(2.333333-inf)' (3.01)
|   |   |   |   |   |   |   |   |   |   |   |   |   |   |   |   |   |   |   |   |   |   |   |   |   |   |   |   |   |   Platelets > 0.235205
|   |   |   |   |   |   |   |   |   |   |   |   |   |   |   |   |   |   |   |   |   |   |   |   |   |   |   |   |   |   |   N_Days <= 0.392722
|   |   |   |   |   |   |   |   |   |   |   |   |   |   |   |   |   |   |   |   |   |   |   |   |   |   |   |   |   |   |   |   Platelets <= 0.295903
|   |   |   |   |   |   |   |   |   |   |   |   |   |   |   |   |   |   |   |   |   |   |   |   |   |   |   |   |   |   |   |   |   Drug = Placebo: '(1.666667-2.333333]' (2.96)
|   |   |   |   |   |   |   |   |   |   |   |   |   |   |   |   |   |   |   |   |   |   |   |   |   |   |   |   |   |   |   |   |   Drug = D-penicillamine: '(-inf-1.666667]' (2.02)
|   |   |   |   |   |   |   |   |   |   |   |   |   |   |   |   |   |   |   |   |   |   |   |   |   |   |   |   |   |   |   |   Platelets > 0.295903: '(2.333333-inf)' (4.02)
|   |   |   |   |   |   |   |   |   |   |   |   |   |   |   |   |   |   |   |   |   |   |   |   |   |   |   |   |   |   |   N_Days > 0.392722
|   |   |   |   |   |   |   |   |   |   |   |   |   |   |   |   |   |   |   |   |   |   |   |   |   |   |   |   |   |   |   |   Prothrombin <= 0.144444: '(-inf-1.666667]' (19.16)
|   |   |   |   |   |   |   |   |   |   |   |   |   |   |   |   |   |   |   |   |   |   |   |   |   |   |   |   |   |   |   |   Prothrombin > 0.144444
|   |   |   |   |   |   |   |   |   |   |   |   |   |   |   |   |   |   |   |   |   |   |   |   |   |   |   |   |   |   |   |   |   Alk_Phos <= 0.119498: '(1.666667-2.333333]' (4.94)
|   |   |   |   |   |   |   |   |   |   |   |   |   |   |   |   |   |   |   |   |   |   |   |   |   |   |   |   |   |   |   |   |   Alk_Phos > 0.119498: '(-inf-1.666667]' (7.04/0.99)
|   |   |   |   |   |   |   |   |   |   |   |   |   |   |   |   |   |   |   |   |   |   |   |   |   Bilirubin > 0.314079
|   |   |   |   |   |   |   |   |   |   |   |   |   |   |   |   |   |   |   |   |   |   |   |   |   |   Ascites = N: '(-inf-1.666667]' (2.02)
|   |   |   |   |   |   |   |   |   |   |   |   |   |   |   |   |   |   |   |   |   |   |   |   |   |   Ascites = Y
|   |   |   |   |   |   |   |   |   |   |   |   |   |   |   |   |   |   |   |   |   |   |   |   |   |   |   Age <= 0.397281: '(1.666667-2.333333]' (19.74)
|   |   |   |   |   |   |   |   |   |   |   |   |   |   |   |   |   |   |   |   |   |   |   |   |   |   |   Age > 0.397281: '(-inf-1.666667]' (4.01/0.99)
|   |   |   |   |   |   |   |   |   |   |   |   |   |   |   |   |   Age > 0.702236
|   |   |   |   |   |   |   |   |   |   |   |   |   |   |   |   |   |   Albumin <= 0.608209: '(1.666667-2.333333]' (116.52/1.01)
|   |   |   |   |   |   |   |   |   |   |   |   |   |   |   |   |   |   Albumin > 0.608209
|   |   |   |   |   |   |   |   |   |   |   |   |   |   |   |   |   |   |   N_Days <= 0.392722: '(2.333333-inf)' (6.01/0.99)
|   |   |   |   |   |   |   |   |   |   |   |   |   |   |   |   |   |   |   N_Days > 0.392722
|   |   |   |   |   |   |   |   |   |   |   |   |   |   |   |   |   |   |   |   Prothrombin <= 0.188889: '(-inf-1.666667]' (7.04/0.99)
|   |   |   |   |   |   |   |   |   |   |   |   |   |   |   |   |   |   |   |   Prothrombin > 0.188889: '(1.666667-2.333333]' (3.95)
|   |   |   |   |   |   |   |   |   |   |   |   |   |   |   Albumin > 0.652985
|   |   |   |   |   |   |   |   |   |   |   |   |   |   |   |   Status = C
|   |   |   |   |   |   |   |   |   |   |   |   |   |   |   |   |   Age <= 0.616366
|   |   |   |   |   |   |   |   |   |   |   |   |   |   |   |   |   |   Prothrombin <= 0.188889: '(1.666667-2.333333]' (310.16/8.06)
|   |   |   |   |   |   |   |   |   |   |   |   |   |   |   |   |   |   Prothrombin > 0.188889
|   |   |   |   |   |   |   |   |   |   |   |   |   |   |   |   |   |   |   Age <= 0.149066
|   |   |   |   |   |   |   |   |   |   |   |   |   |   |   |   |   |   |   |   Drug = Placebo
|   |   |   |   |   |   |   |   |   |   |   |   |   |   |   |   |   |   |   |   |   Copper <= 0.094178: '(1.666667-2.333333]' (3.97/1.01)
|   |   |   |   |   |   |   |   |   |   |   |   |   |   |   |   |   |   |   |   |   Copper > 0.094178: '(-inf-1.666667]' (6.05)
|   |   |   |   |   |   |   |   |   |   |   |   |   |   |   |   |   |   |   |   Drug = D-penicillamine: '(1.666667-2.333333]' (2.96)
|   |   |   |   |   |   |   |   |   |   |   |   |   |   |   |   |   |   |   Age > 0.149066: '(1.666667-2.333333]' (47.43/2.02)
|   |   |   |   |   |   |   |   |   |   |   |   |   |   |   |   |   Age > 0.616366
|   |   |   |   |   |   |   |   |   |   |   |   |   |   |   |   |   |   Age <= 0.620565: '(2.333333-inf)' (4.02)
|   |   |   |   |   |   |   |   |   |   |   |   |   |   |   |   |   |   Age > 0.620565
|   |   |   |   |   |   |   |   |   |   |   |   |   |   |   |   |   |   |   Prothrombin <= 0.111111: '(2.333333-inf)' (2.01)
|   |   |   |   |   |   |   |   |   |   |   |   |   |   |   |   |   |   |   Prothrombin > 0.111111: '(1.666667-2.333333]' (41.46)
|   |   |   |   |   |   |   |   |   |   |   |   |   |   |   |   Status = D: '(1.666667-2.333333]' (44.45/1.01)
|   |   |   |   |   |   |   |   |   |   |   |   |   |   |   |   Status = CL
|   |   |   |   |   |   |   |   |   |   |   |   |   |   |   |   |   Drug = Placebo: '(-inf-1.666667]' (67.49/3.97)
|   |   |   |   |   |   |   |   |   |   |   |   |   |   |   |   |   Drug = D-penicillamine: '(1.666667-2.333333]' (4.94)
|   |   |   |   |   |   |   |   |   |   |   |   |   |   Platelets > 0.496206
|   |   |   |   |   |   |   |   |   |   |   |   |   |   |   Prothrombin <= 0.177778: '(1.666667-2.333333]' (150.1/2.02)
|   |   |   |   |   |   |   |   |   |   |   |   |   |   |   Prothrombin > 0.177778
|   |   |   |   |   |   |   |   |   |   |   |   |   |   |   |   N_Days <= 0.48191: '(1.666667-2.333333]' (3.97/1.0)
|   |   |   |   |   |   |   |   |   |   |   |   |   |   |   |   N_Days > 0.48191
|   |   |   |   |   |   |   |   |   |   |   |   |   |   |   |   |   N_Days <= 0.582878: '(-inf-1.666667]' (3.02)
|   |   |   |   |   |   |   |   |   |   |   |   |   |   |   |   |   N_Days > 0.582878: '(1.666667-2.333333]' (2.98/1.01)
|   |   |   |   |   |   |   |   |   |   |   |   |   Platelets > 0.546282
|   |   |   |   |   |   |   |   |   |   |   |   |   |   Ascites = N: '(-inf-1.666667]' (2.02)
|   |   |   |   |   |   |   |   |   |   |   |   |   |   Ascites = Y: '(2.333333-inf)' (23.11)
|   |   |   |   |   |   |   |   |   |   |   |   Albumin > 0.671642
|   |   |   |   |   |   |   |   |   |   |   |   |   Prothrombin <= 0.033333: '(-inf-1.666667]' (92.74/1.99)
|   |   |   |   |   |   |   |   |   |   |   |   |   Prothrombin > 0.033333
|   |   |   |   |   |   |   |   |   |   |   |   |   |   Albumin <= 0.679104
|   |   |   |   |   |   |   |   |   |   |   |   |   |   |   Prothrombin <= 0.177778
|   |   |   |   |   |   |   |   |   |   |   |   |   |   |   |   Prothrombin <= 0.122222
|   |   |   |   |   |   |   |   |   |   |   |   |   |   |   |   |   Drug = Placebo: '(-inf-1.666667]' (3.02)
|   |   |   |   |   |   |   |   |   |   |   |   |   |   |   |   |   Drug = D-penicillamine: '(2.333333-inf)' (27.13/1.01)
|   |   |   |   |   |   |   |   |   |   |   |   |   |   |   |   Prothrombin > 0.122222: '(-inf-1.666667]' (69.57/1.0)
|   |   |   |   |   |   |   |   |   |   |   |   |   |   |   Prothrombin > 0.177778: '(2.333333-inf)' (3.01)
|   |   |   |   |   |   |   |   |   |   |   |   |   |   Albumin > 0.679104
|   |   |   |   |   |   |   |   |   |   |   |   |   |   |   N_Days <= 0.243164
|   |   |   |   |   |   |   |   |   |   |   |   |   |   |   |   Spiders = N
|   |   |   |   |   |   |   |   |   |   |   |   |   |   |   |   |   N_Days <= 0.233908: '(-inf-1.666667]' (3.0/0.99)
|   |   |   |   |   |   |   |   |   |   |   |   |   |   |   |   |   N_Days > 0.233908: '(1.666667-2.333333]' (3.95)
|   |   |   |   |   |   |   |   |   |   |   |   |   |   |   |   Spiders = Y: '(2.333333-inf)' (40.19)
|   |   |   |   |   |   |   |   |   |   |   |   |   |   |   N_Days > 0.243164
|   |   |   |   |   |   |   |   |   |   |   |   |   |   |   |   Tryglicerides <= 0.180531
|   |   |   |   |   |   |   |   |   |   |   |   |   |   |   |   |   Tryglicerides <= 0.176991
|   |   |   |   |   |   |   |   |   |   |   |   |   |   |   |   |   |   Age <= 0.522307
|   |   |   |   |   |   |   |   |   |   |   |   |   |   |   |   |   |   |   Alk_Phos <= 0.025859
|   |   |   |   |   |   |   |   |   |   |   |   |   |   |   |   |   |   |   |   Status = C: '(-inf-1.666667]' (25.16/2.98)
|   |   |   |   |   |   |   |   |   |   |   |   |   |   |   |   |   |   |   |   Status = D: '(2.333333-inf)' (15.07)
|   |   |   |   |   |   |   |   |   |   |   |   |   |   |   |   |   |   |   |   Status = CL: '(-inf-1.666667]' (0.0)
|   |   |   |   |   |   |   |   |   |   |   |   |   |   |   |   |   |   |   Alk_Phos > 0.025859
|   |   |   |   |   |   |   |   |   |   |   |   |   |   |   |   |   |   |   |   N_Days <= 0.320993
|   |   |   |   |   |   |   |   |   |   |   |   |   |   |   |   |   |   |   |   |   Bilirubin <= 0.079422
|   |   |   |   |   |   |   |   |   |   |   |   |   |   |   |   |   |   |   |   |   |   N_Days <= 0.256416: '(1.666667-2.333333]' (2.96)
|   |   |   |   |   |   |   |   |   |   |   |   |   |   |   |   |   |   |   |   |   |   N_Days > 0.256416
|   |   |   |   |   |   |   |   |   |   |   |   |   |   |   |   |   |   |   |   |   |   |   Ascites = N: '(-inf-1.666667]' (24.17/1.99)
|   |   |   |   |   |   |   |   |   |   |   |   |   |   |   |   |   |   |   |   |   |   |   Ascites = Y
|   |   |   |   |   |   |   |   |   |   |   |   |   |   |   |   |   |   |   |   |   |   |   |   Platelets <= 0.241275: '(1.666667-2.333333]' (2.96)
|   |   |   |   |   |   |   |   |   |   |   |   |   |   |   |   |   |   |   |   |   |   |   |   Platelets > 0.241275: '(-inf-1.666667]' (3.0/0.99)
|   |   |   |   |   |   |   |   |   |   |   |   |   |   |   |   |   |   |   |   |   Bilirubin > 0.079422: '(2.333333-inf)' (13.04/0.99)
|   |   |   |   |   |   |   |   |   |   |   |   |   |   |   |   |   |   |   |   N_Days > 0.320993
|   |   |   |   |   |   |   |   |   |   |   |   |   |   |   |   |   |   |   |   |   Bilirubin <= 0.01083
|   |   |   |   |   |   |   |   |   |   |   |   |   |   |   |   |   |   |   |   |   |   Bilirubin <= 0.00361: '(1.666667-2.333333]' (34.55)
|   |   |   |   |   |   |   |   |   |   |   |   |   |   |   |   |   |   |   |   |   |   Bilirubin > 0.00361
|   |   |   |   |   |   |   |   |   |   |   |   |   |   |   |   |   |   |   |   |   |   |   Prothrombin <= 0.192415
|   |   |   |   |   |   |   |   |   |   |   |   |   |   |   |   |   |   |   |   |   |   |   |   Albumin <= 0.910448
|   |   |   |   |   |   |   |   |   |   |   |   |   |   |   |   |   |   |   |   |   |   |   |   |   SGOT <= 0.118705
|   |   |   |   |   |   |   |   |   |   |   |   |   |   |   |   |   |   |   |   |   |   |   |   |   |   Albumin <= 0.776119
|   |   |   |   |   |   |   |   |   |   |   |   |   |   |   |   |   |   |   |   |   |   |   |   |   |   |   Drug = Placebo
|   |   |   |   |   |   |   |   |   |   |   |   |   |   |   |   |   |   |   |   |   |   |   |   |   |   |   |   Platelets <= 0.427921: '(1.666667-2.333333]' (3.97/1.01)
|   |   |   |   |   |   |   |   |   |   |   |   |   |   |   |   |   |   |   |   |   |   |   |   |   |   |   |   Platelets > 0.427921: '(-inf-1.666667]' (2.02)
|   |   |   |   |   |   |   |   |   |   |   |   |   |   |   |   |   |   |   |   |   |   |   |   |   |   |   Drug = D-penicillamine: '(-inf-1.666667]' (3.02)
|   |   |   |   |   |   |   |   |   |   |   |   |   |   |   |   |   |   |   |   |   |   |   |   |   |   Albumin > 0.776119: '(2.333333-inf)' (4.02)
|   |   |   |   |   |   |   |   |   |   |   |   |   |   |   |   |   |   |   |   |   |   |   |   |   SGOT > 0.118705
|   |   |   |   |   |   |   |   |   |   |   |   |   |   |   |   |   |   |   |   |   |   |   |   |   |   Cholesterol <= 0.074924
|   |   |   |   |   |   |   |   |   |   |   |   |   |   |   |   |   |   |   |   |   |   |   |   |   |   |   Prothrombin <= 0.133333: '(-inf-1.666667]' (5.04)
|   |   |   |   |   |   |   |   |   |   |   |   |   |   |   |   |   |   |   |   |   |   |   |   |   |   |   Prothrombin > 0.133333
|   |   |   |   |   |   |   |   |   |   |   |   |   |   |   |   |   |   |   |   |   |   |   |   |   |   |   |   Platelets <= 0.318665: '(1.666667-2.333333]' (3.95)
|   |   |   |   |   |   |   |   |   |   |   |   |   |   |   |   |   |   |   |   |   |   |   |   |   |   |   |   Platelets > 0.318665: '(-inf-1.666667]' (3.02)
|   |   |   |   |   |   |   |   |   |   |   |   |   |   |   |   |   |   |   |   |   |   |   |   |   |   Cholesterol > 0.074924
|   |   |   |   |   |   |   |   |   |   |   |   |   |   |   |   |   |   |   |   |   |   |   |   |   |   |   Cholesterol <= 0.159517: '(-inf-1.666667]' (83.67/0.99)
|   |   |   |   |   |   |   |   |   |   |   |   |   |   |   |   |   |   |   |   |   |   |   |   |   |   |   Cholesterol > 0.159517: '(1.666667-2.333333]' (2.98/1.01)
|   |   |   |   |   |   |   |   |   |   |   |   |   |   |   |   |   |   |   |   |   |   |   |   Albumin > 0.910448: '(1.666667-2.333333]' (12.86/1.01)
|   |   |   |   |   |   |   |   |   |   |   |   |   |   |   |   |   |   |   |   |   |   |   Prothrombin > 0.192415
|   |   |   |   |   |   |   |   |   |   |   |   |   |   |   |   |   |   |   |   |   |   |   |   Platelets <= 0.195751: '(2.333333-inf)' (4.02)
|   |   |   |   |   |   |   |   |   |   |   |   |   |   |   |   |   |   |   |   |   |   |   |   Platelets > 0.195751: '(1.666667-2.333333]' (6.91)
|   |   |   |   |   |   |   |   |   |   |   |   |   |   |   |   |   |   |   |   |   Bilirubin > 0.01083
|   |   |   |   |   |   |   |   |   |   |   |   |   |   |   |   |   |   |   |   |   |   Tryglicerides <= 0.168142
|   |   |   |   |   |   |   |   |   |   |   |   |   |   |   |   |   |   |   |   |   |   |   Cholesterol <= 0.07855
|   |   |   |   |   |   |   |   |   |   |   |   |   |   |   |   |   |   |   |   |   |   |   |   Ascites = N: '(1.666667-2.333333]' (140.4/10.08)
|   |   |   |   |   |   |   |   |   |   |   |   |   |   |   |   |   |   |   |   |   |   |   |   Ascites = Y
|   |   |   |   |   |   |   |   |   |   |   |   |   |   |   |   |   |   |   |   |   |   |   |   |   Age <= 0.501627: '(1.666667-2.333333]' (15.8)
|   |   |   |   |   |   |   |   |   |   |   |   |   |   |   |   |   |   |   |   |   |   |   |   |   Age > 0.501627: '(-inf-1.666667]' (3.02)
|   |   |   |   |   |   |   |   |   |   |   |   |   |   |   |   |   |   |   |   |   |   |   Cholesterol > 0.07855
|   |   |   |   |   |   |   |   |   |   |   |   |   |   |   |   |   |   |   |   |   |   |   |   Status = C
|   |   |   |   |   |   |   |   |   |   |   |   |   |   |   |   |   |   |   |   |   |   |   |   |   Prothrombin <= 0.1
|   |   |   |   |   |   |   |   |   |   |   |   |   |   |   |   |   |   |   |   |   |   |   |   |   |   Ascites = N
|   |   |   |   |   |   |   |   |   |   |   |   |   |   |   |   |   |   |   |   |   |   |   |   |   |   |   SGOT <= 0.18705
|   |   |   |   |   |   |   |   |   |   |   |   |   |   |   |   |   |   |   |   |   |   |   |   |   |   |   |   Copper <= 0.071918: '(-inf-1.666667]' (21.15/0.99)
|   |   |   |   |   |   |   |   |   |   |   |   |   |   |   |   |   |   |   |   |   |   |   |   |   |   |   |   Copper > 0.071918: '(1.666667-2.333333]' (2.98/1.01)
|   |   |   |   |   |   |   |   |   |   |   |   |   |   |   |   |   |   |   |   |   |   |   |   |   |   |   SGOT > 0.18705
|   |   |   |   |   |   |   |   |   |   |   |   |   |   |   |   |   |   |   |   |   |   |   |   |   |   |   |   Prothrombin <= 0.077778: '(1.666667-2.333333]' (72.22/7.06)
|   |   |   |   |   |   |   |   |   |   |   |   |   |   |   |   |   |   |   |   |   |   |   |   |   |   |   |   Prothrombin > 0.077778
|   |   |   |   |   |   |   |   |   |   |   |   |   |   |   |   |   |   |   |   |   |   |   |   |   |   |   |   |   Drug = Placebo
|   |   |   |   |   |   |   |   |   |   |   |   |   |   |   |   |   |   |   |   |   |   |   |   |   |   |   |   |   |   Copper <= 0.099315: '(1.666667-2.333333]' (2.96)
|   |   |   |   |   |   |   |   |   |   |   |   |   |   |   |   |   |   |   |   |   |   |   |   |   |   |   |   |   |   Copper > 0.099315: '(2.333333-inf)' (9.01/1.97)
|   |   |   |   |   |   |   |   |   |   |   |   |   |   |   |   |   |   |   |   |   |   |   |   |   |   |   |   |   Drug = D-penicillamine: '(1.666667-2.333333]' (25.67)
|   |   |   |   |   |   |   |   |   |   |   |   |   |   |   |   |   |   |   |   |   |   |   |   |   |   Ascites = Y
|   |   |   |   |   |   |   |   |   |   |   |   |   |   |   |   |   |   |   |   |   |   |   |   |   |   |   N_Days <= 0.655448: '(2.333333-inf)' (3.0/0.99)
|   |   |   |   |   |   |   |   |   |   |   |   |   |   |   |   |   |   |   |   |   |   |   |   |   |   |   N_Days > 0.655448: '(-inf-1.666667]' (3.02)
|   |   |   |   |   |   |   |   |   |   |   |   |   |   |   |   |   |   |   |   |   |   |   |   |   Prothrombin > 0.1
|   |   |   |   |   |   |   |   |   |   |   |   |   |   |   |   |   |   |   |   |   |   |   |   |   |   Bilirubin <= 0.025271
|   |   |   |   |   |   |   |   |   |   |   |   |   |   |   |   |   |   |   |   |   |   |   |   |   |   |   Prothrombin <= 0.111111: '(-inf-1.666667]' (3.02)
|   |   |   |   |   |   |   |   |   |   |   |   |   |   |   |   |   |   |   |   |   |   |   |   |   |   |   Prothrombin > 0.111111
|   |   |   |   |   |   |   |   |   |   |   |   |   |   |   |   |   |   |   |   |   |   |   |   |   |   |   |   Drug = Placebo: '(1.666667-2.333333]' (30.64/2.01)
|   |   |   |   |   |   |   |   |   |   |   |   |   |   |   |   |   |   |   |   |   |   |   |   |   |   |   |   Drug = D-penicillamine: '(2.333333-inf)' (3.0/0.99)
|   |   |   |   |   |   |   |   |   |   |   |   |   |   |   |   |   |   |   |   |   |   |   |   |   |   Bilirubin > 0.025271
|   |   |   |   |   |   |   |   |   |   |   |   |   |   |   |   |   |   |   |   |   |   |   |   |   |   |   Ascites = N
|   |   |   |   |   |   |   |   |   |   |   |   |   |   |   |   |   |   |   |   |   |   |   |   |   |   |   |   Platelets <= 0.342944
|   |   |   |   |   |   |   |   |   |   |   |   |   |   |   |   |   |   |   |   |   |   |   |   |   |   |   |   |   Platelets <= 0.230653: '(-inf-1.666667]' (8.07)
|   |   |   |   |   |   |   |   |   |   |   |   |   |   |   |   |   |   |   |   |   |   |   |   |   |   |   |   |   Platelets > 0.230653: '(1.666667-2.333333]' (7.94/2.02)
|   |   |   |   |   |   |   |   |   |   |   |   |   |   |   |   |   |   |   |   |   |   |   |   |   |   |   |   Platelets > 0.342944: '(-inf-1.666667]' (22.18)
|   |   |   |   |   |   |   |   |   |   |   |   |   |   |   |   |   |   |   |   |   |   |   |   |   |   |   Ascites = Y
|   |   |   |   |   |   |   |   |   |   |   |   |   |   |   |   |   |   |   |   |   |   |   |   |   |   |   |   Copper <= 0.133562: '(1.666667-2.333333]' (3.95)
|   |   |   |   |   |   |   |   |   |   |   |   |   |   |   |   |   |   |   |   |   |   |   |   |   |   |   |   Copper > 0.133562
|   |   |   |   |   |   |   |   |   |   |   |   |   |   |   |   |   |   |   |   |   |   |   |   |   |   |   |   |   Prothrombin <= 0.144444: '(-inf-1.666667]' (3.02)
|   |   |   |   |   |   |   |   |   |   |   |   |   |   |   |   |   |   |   |   |   |   |   |   |   |   |   |   |   Prothrombin > 0.144444
|   |   |   |   |   |   |   |   |   |   |   |   |   |   |   |   |   |   |   |   |   |   |   |   |   |   |   |   |   |   Age <= 0.282228: '(1.666667-2.333333]' (3.95)
|   |   |   |   |   |   |   |   |   |   |   |   |   |   |   |   |   |   |   |   |   |   |   |   |   |   |   |   |   |   Age > 0.282228: '(-inf-1.666667]' (4.01/0.99)
|   |   |   |   |   |   |   |   |   |   |   |   |   |   |   |   |   |   |   |   |   |   |   |   Status = D
|   |   |   |   |   |   |   |   |   |   |   |   |   |   |   |   |   |   |   |   |   |   |   |   |   Hepatomegaly = Y
|   |   |   |   |   |   |   |   |   |   |   |   |   |   |   |   |   |   |   |   |   |   |   |   |   |   N_Days <= 0.750947: '(-inf-1.666667]' (9.07)
|   |   |   |   |   |   |   |   |   |   |   |   |   |   |   |   |   |   |   |   |   |   |   |   |   |   N_Days > 0.750947: '(2.333333-inf)' (3.02/1.01)
|   |   |   |   |   |   |   |   |   |   |   |   |   |   |   |   |   |   |   |   |   |   |   |   |   Hepatomegaly = N
|   |   |   |   |   |   |   |   |   |   |   |   |   |   |   |   |   |   |   |   |   |   |   |   |   |   Drug = Placebo: '(1.666667-2.333333]' (2.96)
|   |   |   |   |   |   |   |   |   |   |   |   |   |   |   |   |   |   |   |   |   |   |   |   |   |   Drug = D-penicillamine: '(-inf-1.666667]' (2.01/1.0)
|   |   |   |   |   |   |   |   |   |   |   |   |   |   |   |   |   |   |   |   |   |   |   |   Status = CL
|   |   |   |   |   |   |   |   |   |   |   |   |   |   |   |   |   |   |   |   |   |   |   |   |   Cholesterol <= 0.137764: '(-inf-1.666667]' (2.02)
|   |   |   |   |   |   |   |   |   |   |   |   |   |   |   |   |   |   |   |   |   |   |   |   |   Cholesterol > 0.137764: '(1.666667-2.333333]' (55.29)
|   |   |   |   |   |   |   |   |   |   |   |   |   |   |   |   |   |   |   |   |   |   Tryglicerides > 0.168142
|   |   |   |   |   |   |   |   |   |   |   |   |   |   |   |   |   |   |   |   |   |   |   Hepatomegaly = Y: '(2.333333-inf)' (8.04)
|   |   |   |   |   |   |   |   |   |   |   |   |   |   |   |   |   |   |   |   |   |   |   Hepatomegaly = N: '(1.666667-2.333333]' (12.86/1.01)
|   |   |   |   |   |   |   |   |   |   |   |   |   |   |   |   |   |   Age > 0.522307
|   |   |   |   |   |   |   |   |   |   |   |   |   |   |   |   |   |   |   Tryglicerides <= 0.053097
|   |   |   |   |   |   |   |   |   |   |   |   |   |   |   |   |   |   |   |   Prothrombin <= 0.133333
|   |   |   |   |   |   |   |   |   |   |   |   |   |   |   |   |   |   |   |   |   Ascites = N: '(1.666667-2.333333]' (27.64)
|   |   |   |   |   |   |   |   |   |   |   |   |   |   |   |   |   |   |   |   |   Ascites = Y
|   |   |   |   |   |   |   |   |   |   |   |   |   |   |   |   |   |   |   |   |   |   Age <= 0.692841: '(-inf-1.666667]' (2.02)
|   |   |   |   |   |   |   |   |   |   |   |   |   |   |   |   |   |   |   |   |   |   Age > 0.692841: '(1.666667-2.333333]' (4.95/1.0)
|   |   |   |   |   |   |   |   |   |   |   |   |   |   |   |   |   |   |   |   Prothrombin > 0.133333
|   |   |   |   |   |   |   |   |   |   |   |   |   |   |   |   |   |   |   |   |   Ascites = N: '(-inf-1.666667]' (8.02/2.98)
|   |   |   |   |   |   |   |   |   |   |   |   |   |   |   |   |   |   |   |   |   Ascites = Y: '(2.333333-inf)' (3.01)
|   |   |   |   |   |   |   |   |   |   |   |   |   |   |   |   |   |   |   Tryglicerides > 0.053097
|   |   |   |   |   |   |   |   |   |   |   |   |   |   |   |   |   |   |   |   Platelets <= 0.298938
|   |   |   |   |   |   |   |   |   |   |   |   |   |   |   |   |   |   |   |   |   Edema = N
|   |   |   |   |   |   |   |   |   |   |   |   |   |   |   |   |   |   |   |   |   |   N_Days <= 0.59024
|   |   |   |   |   |   |   |   |   |   |   |   |   |   |   |   |   |   |   |   |   |   |   Prothrombin <= 0.177778
|   |   |   |   |   |   |   |   |   |   |   |   |   |   |   |   |   |   |   |   |   |   |   |   Cholesterol <= 0.105136
|   |   |   |   |   |   |   |   |   |   |   |   |   |   |   |   |   |   |   |   |   |   |   |   |   Copper <= 0.015411: '(1.666667-2.333333]' (3.95)
|   |   |   |   |   |   |   |   |   |   |   |   |   |   |   |   |   |   |   |   |   |   |   |   |   Copper > 0.015411
|   |   |   |   |   |   |   |   |   |   |   |   |   |   |   |   |   |   |   |   |   |   |   |   |   |   Bilirubin <= 0.036101: '(-inf-1.666667]' (17.12/1.99)
|   |   |   |   |   |   |   |   |   |   |   |   |   |   |   |   |   |   |   |   |   |   |   |   |   |   Bilirubin > 0.036101: '(2.333333-inf)' (3.01)
|   |   |   |   |   |   |   |   |   |   |   |   |   |   |   |   |   |   |   |   |   |   |   |   Cholesterol > 0.105136
|   |   |   |   |   |   |   |   |   |   |   |   |   |   |   |   |   |   |   |   |   |   |   |   |   Albumin <= 0.783582: '(2.333333-inf)' (88.42/1.01)
|   |   |   |   |   |   |   |   |   |   |   |   |   |   |   |   |   |   |   |   |   |   |   |   |   Albumin > 0.783582
|   |   |   |   |   |   |   |   |   |   |   |   |   |   |   |   |   |   |   |   |   |   |   |   |   |   Albumin <= 0.809701: '(2.333333-inf)' (3.01)
|   |   |   |   |   |   |   |   |   |   |   |   |   |   |   |   |   |   |   |   |   |   |   |   |   |   Albumin > 0.809701: '(-inf-1.666667]' (2.02)
|   |   |   |   |   |   |   |   |   |   |   |   |   |   |   |   |   |   |   |   |   |   |   Prothrombin > 0.177778
|   |   |   |   |   |   |   |   |   |   |   |   |   |   |   |   |   |   |   |   |   |   |   |   Copper <= 0.104452: '(-inf-1.666667]' (4.03)
|   |   |   |   |   |   |   |   |   |   |   |   |   |   |   |   |   |   |   |   |   |   |   |   Copper > 0.104452: '(1.666667-2.333333]' (8.91/1.01)
|   |   |   |   |   |   |   |   |   |   |   |   |   |   |   |   |   |   |   |   |   |   N_Days > 0.59024
|   |   |   |   |   |   |   |   |   |   |   |   |   |   |   |   |   |   |   |   |   |   |   N_Days <= 0.669121: '(-inf-1.666667]' (39.32)
|   |   |   |   |   |   |   |   |   |   |   |   |   |   |   |   |   |   |   |   |   |   |   N_Days > 0.669121
|   |   |   |   |   |   |   |   |   |   |   |   |   |   |   |   |   |   |   |   |   |   |   |   Tryglicerides <= 0.079646: '(2.333333-inf)' (3.01)
|   |   |   |   |   |   |   |   |   |   |   |   |   |   |   |   |   |   |   |   |   |   |   |   Tryglicerides > 0.079646
